1.544047554705701542e+00 6.956150476006446315e-01 -2.051286317549758653e-01 1.649646264774071058e+00 3.302037976614415893e-01 1.266697253771175591e+00 6.172352950874409050e-01 1.122638060728158721e-01 6.499915100221238529e-01 1.696337019532118129e+00 1.146240239951858308e+00 1.159091420790976601e+00 1.262762145242033673e+00 5.494995268806832645e-01 1.243407528113585903e+00 6.340671486116347122e-01 6.620612991221153099e-01 1.448483662732927391e+00 9.867411017781237970e-01 6.662168171017059937e-01 1.326659490511192141e+00 1.519653706318915498e+00 1.133636236099296424e+00 6.249377682256214150e-01 1.300019337868952407e+00 -4.525058089427040631e-02 1.754237050808392206e+00 1.391848041413221049e+00 5.028434419666658606e-01 1.265328694821009625e+00 -1.087206597446819384e-02 4.671495203184047873e-02 6.708877659286669459e-01 3.780246594801548454e-01 2.537837052330813581e-01 8.303766061442958701e-01 3.915847301100078282e-01 5.742073611845674996e-01 9.190679627065859170e-02 6.046199543322925418e-01 1.249635888419022844e+00 9.613229679999253374e-01 5.290600816521212613e-01 -1.914871621550778835e-01 1.728281794095264612e+00 1.273941785859758813e+00 8.683645326823803412e-01 1.596877355277804611e+00 1.487977027342089809e+00 1.149818385720413616e+00 4.443622855589971499e-01 1.619823650248757962e+00 -2.246987388509481542e-01 8.240596229173466902e-01 3.723629037475734149e-01 1.715525796675182457e+00 3.709274649778552257e-01 6.876585434562310084e-01 -7.183508512276222391e-02 1.175955316108852067e+00 1.662874808939347693e+00 1.737825071597942639e+00 6.057542833308277030e-01 1.675524465055846957e+00 -9.353498723799902326e-02 2.101131647401815183e-01 7.922576139009573915e-01 1.509756012088933064e+00 2.346564724829501625e+00 1.584307268173578365e+00 2.203790644636471896e+00 1.815537520766180579e+00 2.388892552347553710e+00 1.368131234034889898e+00 7.779982301780850040e-01 1.029409118157456504e+00 1.097911286782106588e+00 4.825101101299381079e-01 1.642680777542864012e+00 9.796805199528485497e-01 1.152250819882287614e+00 -1.508208189608813976e-01 8.747356910202941371e-01 5.921764970459109101e-01 1.748938994066851160e+00 1.361263290070367171e+00 4.846527778915904472e-02 6.107922119539083150e-01 1.670510880551214633e-02 1.432041726976575280e+00 5.082234419184408214e-01 7.370124508878809211e-01 -1.742710420998279941e-01 6.365683984933317996e-01 1.334549238166344187e+00 1.036280856117706151e+00 -2.426511772286133461e-01 4.046747645732907128e-01 2.163779060909589269e+00 2.352682075667105188e+00 2.028469758969626557e+00 1.899174038370743611e+00 1.771756090199331224e+00 2.701826976594211338e+00 3.147048297770626224e+00 1.104837849330448929e+00 2.371818938906701479e+00 3.070598825014293487e-01 8.077341031825983064e-01 1.274711426993964558e+00 1.616379564646994504e+00 1.102663972089282102e-01 8.071206504897854295e-01 6.908875209420752839e-01 6.455232660928090782e-01 1.767545706775030867e+00 8.995119010614036625e-01 4.982232550855900666e-01 3.381746345968061340e-01 6.834349644417603287e-02 7.664801071103454211e-01 1.198410715481007971e+00 1.323535096465756622e+00 -9.230156172095632661e-01 -6.079709322192333731e-01 -1.479393217142845218e+00 -1.370823924862422771e+00 -1.934571463156200266e-01 6.794964376549070817e-01 8.687403051083067984e-01 2.361976564152354019e+00 2.395895624536375390e+00 1.403177134125832337e+00 2.265280937519642102e+00 2.757440467492206171e+00 2.292870298376724403e+00 1.864040006833238783e+00 5.345911594956509472e-01 3.473344225136260066e-01 -2.152169779937921912e-01 4.663207690663867533e-01 1.632614453599852355e+00 1.572179742635832600e+00 1.831834163839612728e+00 9.322708522499857375e-01 8.633658363603393671e-01 1.954045421715629338e+00 1.851443682325007334e+00 9.947325670977028578e-01 9.686552718696260778e-01 -1.084146340135514752e-01 -1.672234390732630249e+00 -3.039368655811280906e+00 -2.830023762477538618e+00 -3.342172878524699797e+00 -8.152611775255808046e-01 4.013333715075684816e-01 3.385940578054521533e-01 1.643272753989734491e+00 2.952699716034243860e+00 9.955553594246465687e-01 1.466219471191933410e+00 1.450461479135965348e+00 2.484504117537329915e+00 3.948007942851723961e-01 7.835015062016688070e-01 3.993936012119632395e-02 4.349907429452581908e-01 3.923614165563759082e-01 1.368168814798691235e+00 1.011768064895361752e+00 1.890313041622960544e+00 7.390436980653255494e-01 2.240886798998016793e+00 2.204272610642200814e+00 1.539771680875980930e+00 1.549618628211229199e+00 4.397299607745034367e-01 -1.919069942184878474e+00 -2.689444046610766748e+00 -3.844143477978037904e+00 -4.255423393801499365e+00 -4.738146815028313696e+00 -3.489743461283821180e+00 -3.120372440755846188e+00 -2.480873330680634758e+00 -2.557909788721264732e+00 -2.155048649066070077e+00 -2.845184246972377040e-01 -1.010672316729135822e+00 5.519282641413844059e-01 2.232943067759588729e+00 2.351804573549811206e+00 6.888829787579618946e-01 1.332972727391883438e+00 1.245188122405237241e+00 7.883434855670228281e-01 1.630743950982047830e+00 8.155481890379902010e-01 1.660570619742600007e+00 6.797217815353511217e-01 1.667335014500324952e+00 2.173364858214012596e+00 2.073253436371456537e+00 -6.742436689758998236e-01 -1.041758089589854386e+00 -3.939813474092328960e+00 -3.972605084597442104e+00 -5.370417564332313098e+00 -5.116315727274145964e+00 -5.268136031553653176e+00 -6.165653510313551244e+00 -5.999831686268521480e+00 -5.091543230254925945e+00 -4.859090957443569003e+00 -3.964569216885351910e+00 -1.720451911412192336e+00 -2.835625236838862584e+00 -1.801927803383186255e+00 -7.083933054464031098e-01 2.239745109666461342e+00 1.580413971328104017e+00 1.636617879325799274e+00 9.363862872741628429e-01 7.304707417000407821e-01 1.162190109662301962e+00 1.344998953088954119e+00 3.834287260679160592e-01 1.883104341605467580e+00 1.181867846767767904e+00 -2.782795768005335568e-01 -1.311493028871117739e+00 -2.496842432364523301e+00 -3.587225809501319418e+00 -5.578356354266405859e+00 -4.619679316216620535e+00 -5.217230493608703945e+00 -5.838031761476409010e+00 -6.663140486780376293e+00 -6.962890141703524272e+00 -6.860857273835256009e+00 -5.429468540343608041e+00 -5.550031982440365219e+00 -4.115943520464476535e+00 -4.439516353366875556e+00 -2.316547858743819077e+00 -3.248938199695711404e+00 -1.481627302761567622e+00 9.147973938133915905e-02 8.628769362519232988e-01 1.650139089320131536e+00 9.542952739662260431e-01 5.845145782545433377e-01 -1.169263846626427544e-02 7.357797173724810458e-01 -4.290676464742166352e-01 7.824575235767812220e-01 -4.582045481039920265e-01 -1.316823138914772873e+00 -2.033653309954759791e+00 -2.794134809965636013e+00 -5.534356846606773850e+00 -5.509130229025737790e+00 -6.377333475258448736e+00 -5.569352230451266372e+00 -5.784085866930460007e+00 -6.611247799251284363e+00 -4.499627678830501409e+00 -4.651053298678307968e+00 -5.773210370410726711e+00 -6.390332691847092406e+00 -4.928328365479249129e+00 -2.872333160691598497e+00 -3.392206690273126046e+00 -1.869767052226993354e+00 -2.196580633864205101e+00 3.645451279756086738e-01 6.690492390264426437e-01 5.541025379186614863e-01 2.711682063428109690e-01 1.241498609389759311e+00 3.107157693049240610e-01 -2.430800999406166063e-01 3.459857986364500704e-01 -4.296533977176377611e-02 -1.702378941085795239e+00 -3.383013497214077514e+00 -3.449508507687969239e+00 -4.444570724793377892e+00 -5.774343790301936785e+00 -5.741834454525599263e+00 -5.866710567697206002e+00 -4.508561402818036079e+00 -4.161525957513744878e+00 -3.794692584525957368e+00 -2.979279468966998579e+00 -2.832966266676213873e+00 -4.000913781883661535e+00 -5.197164302034426697e+00 -3.687418958105201483e+00 -3.875389317021090907e+00 -2.519346423853477290e+00 -4.303863335778208565e+00 -1.578364141806974486e+00 1.351158271629132157e+00 6.898227837131414297e-01 1.804027567951253408e+00 9.260962385752179449e-01 1.192457999888442366e+00 1.226957102171187142e+00 5.692853005967567215e-02 -7.538645101347516420e-01 1.153531278868624443e-01 -2.017181308964333120e+00 -3.355876409104164626e+00 -4.108514955623398635e+00 -4.239865674036805920e+00 -3.715385745132789186e+00 -2.333197257190767981e+00 -2.380755240835319420e+00 -1.424345667967342521e+00 -2.029954633910369566e+00 -2.434028812731864111e+00 -8.482680237558024583e-01 2.215073774428571174e-01 -2.267557196697385979e+00 -3.634684835772426847e+00 -2.952196292078882234e+00 -4.674484896096672060e+00 -4.185835087189906822e+00 -3.291305007639282465e+00 -2.052951934736482187e+00 -3.837924105607872227e-01 5.798691058570028256e-02 4.956390359677125268e-01 5.023224418431259108e-01 1.232950133256909497e+00 1.462421926428576713e+00 7.472246676019286271e-01 6.850394672845325772e-01 -2.432981549360000884e+00 -3.029236518624206287e+00 -1.471215103886081232e+00 -9.991977953656956402e-01 -8.608889326382537233e-01 3.269716174346116722e-01 1.297142712746428783e+00 3.264557431786109021e+00 4.386043580343455872e+00 1.517914881954169903e+00 -7.864932727511050881e-02 -3.673346580544762929e-01 7.110922195553930347e-01 -3.092710969874209681e+00 -3.898092992928882783e+00 -3.757076576626583009e+00 -3.796025975299985422e+00 -3.485186086430605901e+00 -2.079610130560320957e+00 -5.137825197834124946e-01 2.405817189580594928e-01 -5.049660252014560868e-02 -3.150757512481388578e-01 2.127889118121102374e-01 -1.820834409861041281e-01 3.700312731519144194e-01 -3.621099178932335461e-01 -7.190238417385979020e-01 -1.557847362303932393e+00 -1.493024755421195060e+00 1.454010695891215510e-01 9.526820297861366971e-01 1.278349930389421463e+00 1.860808406914138624e+00 3.330729252387333972e+00 4.249353223875928620e+00 5.178841282809696800e+00 2.543975623561836041e+00 7.599766729112402697e-01 1.710744681583745708e-01 -5.644854042212813505e-01 -1.088892134902664788e+00 -1.489350812938692759e+00 -1.550837914469770817e+00 -1.662217896318551658e+00 6.377969492600371604e-02 -4.331726553753760811e-01 1.902463630916488180e+00 5.940944485705581535e-01 -6.199966376975898363e-01 1.958383468315805231e-01 9.600742540992819318e-01 1.069933813808703560e+00 4.729382437077472856e-01 3.908506949643542061e-01 3.874439776570791083e-01 -1.107216261068899144e+00 3.444490511560759360e-01 2.963600984791337822e+00 3.134355249768429719e+00 4.808054700204879239e+00 4.914637535742170549e+00 2.823825048563613382e+00 3.156632255346669247e+00 3.749574367696523858e+00 1.901244306791728622e+00 1.190932339572290388e+00 1.776519158032312529e+00 3.836691932098007518e-01 -1.177176443689386121e+00 -9.272630997077361270e-01 7.263484512254045899e-01 1.048986495734421709e+00 2.004933474739265087e+00 1.240261226618815993e+00 2.026560493726256684e+00 8.875148446517345802e-01 4.313134933025267875e-02 5.464268510197406448e-01 4.406801174720441638e-01 7.965061874165386691e-01 1.521216186208496746e+00 4.995177797085262328e-01 1.316845615286848847e+00 5.613437253796550730e-02 1.360957923704627870e+00 2.545611948607067632e+00 3.881737649622625241e+00 2.833417196044178521e+00 3.890961090315555815e+00 2.648252302323581997e+00 3.651746610082985178e+00 2.166149513908530277e+00 2.283206052862260638e+00 2.227820342510115736e+00 1.793638505478485801e+00 -1.257596768968279877e+00 -1.061028283590814469e+00 -9.766587944614684158e-01 9.286920046854860722e-01 1.426422711407006050e+00 3.099452726118916424e+00 2.691832222002492614e+00 1.373754391914909334e+00 1.057082181887540884e+00 1.184357862106771409e+00 3.067847393015736279e-01 7.764292910899589506e-01 7.838089439936457570e-01 -1.874839069722005203e-01 8.268142435451498740e-01 9.281486270175186570e-01 5.844347236037560345e-01 1.385322170896679639e+00 2.454779526148813229e+00 2.171651355748720480e+00 4.520091198446777314e-01 1.927559950980898940e+00 1.518412916332060769e+00 2.827210599148567649e+00 1.609191127907013241e+00 2.793971398222522051e+00 2.317408629890568950e+00 1.314102556601847382e+00 -1.767130763324661569e+00 -5.889324741684054398e-01 6.172310193250100108e-01 7.453996235764787093e-01 2.570489508173932514e+00 2.493727201730014276e+00 2.533706508669264501e+00 2.369690600339471320e+00 1.875542831655938825e+00 1.287937529918723456e+00 -2.084045400004390647e-01 1.239168375393887578e+00 1.167305996613583252e+00 -9.396562293222937567e-02 1.694784931863024813e+00 1.881828081946315345e+00 2.872206153451588029e-01 4.247249145496440753e-02 7.754947948818609049e-01 5.432227426888421862e-01 -5.455197140901241193e-01 -1.921146727821902322e+00 5.959462195301924448e-01 -3.519210094500915265e-01 -5.343338513340354368e-01 4.204196194763568095e-01 1.519399106994077320e+00 -2.194841810262716741e+00 3.496895376589836402e-01 -5.018040493710518302e-01 2.032015161721181240e+00 2.391356118348332060e+00 1.702888824828017622e+00 1.511558132579520652e+00 1.550639800605162488e+00 2.692905183685433190e+00 3.422895683444556747e-01 -3.334744059726578169e-01 1.197285418728775003e-01 6.564267552568378017e-01 -2.387630912228148605e-01 1.624499104768180269e+00 2.212833322904891320e-01 2.452353138557809231e+00 9.741250265187639812e-01 9.601856728658421103e-01 -2.752937718987840121e-01 -4.989302448551667934e-01 7.042850307073122984e-01 -1.007093125788624199e+00 -1.825702374464240219e+00 -1.856010042398074322e+00 4.396569518271800092e-01 -6.380727345555511354e-01 -1.486441684562021637e+00 -9.529056347487799838e-01 1.735263518996909671e+00 1.084764682761562238e+00 1.861273384310664136e+00 1.046545266868099233e+00 1.230994818870578475e-02 2.491757836820220895e+00 1.487295251770058169e+00 3.643163124219616078e-01 -9.102501475702309275e-01 -5.560489621965292173e-01 1.511387401575644995e+00 3.368581157592714925e-01 9.812065412583954593e-01 1.215906160112530721e+00 1.035530136067732920e+00 1.956839420014786723e+00 9.363310981722967608e-01 -1.108693104873566204e+00 -3.185313646840577384e-01 4.561293822226402117e-01 4.528899904434100510e-01 -1.157299128406811262e+00 2.054769500948518471e-02 -5.196745413528985891e-01 -1.260110740372187621e+00 -1.637513851409330590e+00 -9.635127899751615432e-01 4.457067600994244483e-01 1.106784965837748880e+00 8.809942638448294838e-01 2.355140909722196474e-01 8.722426315922079398e-01 1.340990901784617551e+00 1.006002312054115055e+00 4.918042852436440571e-01 -4.008140169664018426e-01 -1.190165102251014462e+00 2.922811391332084674e-01 3.487102343351247136e-01 2.429556745166294440e-01 3.604007864393591332e-01 1.410364571404222334e+00 1.301362188064181247e+00 1.038691511780170496e+00 9.859309691870278280e-01 -1.207649860465932923e+00 -2.147300328834782224e-02 -1.436958182291295794e+00 -1.756354828360081471e-02 -2.329614906150878906e-01 4.609814935691939897e-01 -2.609192564589450369e-01 -9.618015819469419858e-01 -1.327554078925089032e+00 1.052522085123258760e-01 3.082132194087268684e-01 1.146311643633579402e+00 2.062231781757865257e+00 2.393020683839863327e+00 9.682275580820384198e-01 9.291959410324539537e-01 9.827186412822810357e-01 -1.155477105232556534e+00 -7.198781533427437429e-01 -8.085151307315581182e-01 -4.987690790362784843e-01 1.289341500965678344e+00 1.170174540227345128e+00 1.660320395602976062e-01 9.321571325489490523e-01 5.918286039905313878e-01 8.799480959861557539e-01 2.154869798263927549e+00 -4.259367908474114284e-01 -2.073696330158247392e+00 -1.048338306188040248e+00 -1.087799950094284318e+00 -1.433245549068220326e+00 -1.078155110920228088e+00 2.421651474956932615e-01 -5.286283852075578105e-02 7.993573589168124771e-01 3.461646738108438703e-01 5.787848403134960851e-01 1.451815555394915025e+00 1.888610075889836093e+00 2.876697529083022342e+00 2.662118777578372342e+00 5.505988259385422579e-01 9.210086591562551828e-01 1.488653605435934502e-01 7.574385562444017894e-02 7.393023863596910328e-01 -2.361083412998227216e-01 8.503055109394125344e-01 4.783589686316914724e-01 7.670505280769007728e-02 9.259623027822354580e-01 1.264695825075748958e+00 9.020101467849640509e-01 2.638877471310212997e+00 9.035068903756450220e-01 -3.621630156814502621e-01 -9.803205102595530240e-01 -2.155532520198220503e+00 -1.613266031121744604e+00 -1.844910136834801095e+00 -2.385118446432461070e+00 -2.511782680408059409e+00 -2.486934363114118085e+00 -1.691641048918301360e+00 -1.576145504495524818e+00 6.990188116267923579e-01 3.553694298536471119e-01 9.946021291729023606e-01 1.679706443904856128e+00 1.332305516174925097e+00 1.145764175188068945e+00 -1.509180344103674964e-01 -4.765759943606694415e-01 7.912734310676030614e-01 -1.069544618000426717e-01 3.064398200776742298e-01 1.638211979752707714e+00 1.406978991796694833e+00 1.040577722320646492e+00 1.272364319348188166e+00 1.472720933096750118e+00 9.717445987675970009e-01 1.974372931746422477e+00 6.769391034164541354e-01 -8.544004188081802953e-01 -5.942936215982907999e-01 -2.796587637203380439e-01 -2.480682250894067131e+00 -4.415075849297313226e+00 -5.187674924013867539e+00 -3.877894417588743980e+00 -3.870840976890336016e+00 -2.116290334720495991e+00 -2.425804494430476854e+00 -1.778474224873468094e-03 3.740418121903848481e-01 2.054642996458937887e+00 6.763989670058216941e-01 8.252350637249667997e-01 1.170394378468229801e+00 6.697672185335293848e-01 -6.303405863863702219e-02 1.095323942911318404e+00 -1.152621491291549727e-01 -7.836497727774772992e-02 1.613142934625867442e+00 7.538564170969619394e-01 1.388227115572481907e+00 7.564137763769049339e-02 1.229785637969377010e+00 -1.673551454299577190e-01 1.017144254732775144e+00 -2.001177653522333011e-01 -7.821368735337068667e-01 2.281817972501264946e-01 -7.951004109817620957e-01 -1.337524409772227418e+00 -2.178327213325011336e+00 -1.457334610251312501e+00 -1.525705092424802567e+00 -2.152259839283715337e+00 -1.409562431916884906e+00 -6.192151982463217630e-01 -1.347492043243296189e+00 -5.387779388842788356e-03 2.021990664392525894e-01 -8.417587134909354507e-01 8.059568043112541602e-01 -2.722359398022254906e-01 -1.017946968117644513e-01 -8.276200494535190799e-02 9.607445868609163497e-01 5.335139893757052665e-01 1.766434185558122705e+00 8.286552290173896385e-01 5.145583652186235257e-01 7.081563912609574185e-01 1.197485837777406026e+00 1.015803955784646995e+00 4.387849194578156975e-02 -7.555880996787840420e-01 -8.244999411570644865e-01 -7.316065606171828772e-01 -5.815407011969043749e-01 -5.357558037267633466e-01 -9.581048750997401831e-01 -1.247240888177139073e+00 -2.702839234436662075e+00 -1.225574982894371612e+00 -1.629263745584700107e+00 -3.931834077190192289e+00 -1.840762742924155093e+00 -1.178275796190813018e+00 -2.261326415531135670e+00 -9.473928407102077953e-02 -2.020467010479224390e-01 5.192346804432014518e-02 1.024789425428588974e+00 1.294884487028304276e+00 1.355541933382674591e-01 1.454751075014894535e-01 6.985924738013244983e-01 3.252920950974705905e-01 1.756080223087807424e+00 -1.779653914779568136e-01 7.097800533786717825e-01 6.925130414312571370e-01 1.200127584269029407e-01 -2.917493913987272425e-01 5.266534145703963832e-01 6.308548425145097394e-01 -9.591270236822280193e-01 -2.820777856289236052e-01 -2.340473601109573032e+00 -9.188977272975883404e-01 -2.501701039603003274e+00 -2.565337611470031476e+00 -1.029974939422136249e+00 -1.718076693972733215e+00 -6.928480881829300886e-01 -1.473588286555241211e+00 -4.733090854114875290e-01 -3.004651485044944614e-01 5.425665932719730966e-01 5.284642471988023615e-01 1.397778739284984306e+00 8.653086096092190704e-01 2.551212723691147904e-02 3.382932305211593382e-01 -7.457011344613065362e-02 1.290252762026012023e+00 8.194994031774445187e-01 1.236523839144134440e+00 3.892859342598556927e-01 3.854512038217286496e-01 7.606474298473323570e-01 -1.170427084422887565e-01 4.671428715448806140e-02 4.113297685271041226e-01 7.882474081443144875e-01 7.132683586399597708e-02 -9.373390616998668323e-02 3.812151854649097338e-01 9.792464139680847612e-01 9.576434045613938517e-01 7.418225168715897322e-02 9.988663385870187872e-01 7.364040164405555311e-01 1.189792537554322127e+00 4.851160988417049791e-02 7.606718253679167763e-01 2.947801950930976078e-01 6.803579408307656173e-01 6.236093508245743600e-01 1.176088253951780738e+00 2.376832297318806908e-01 1.393651127897772790e+00
1.743845840223369859e+00 1.723084848400264324e+00 6.596834291311413079e-01 3.661131723327358256e-01 9.007811300600896409e-01 1.412011516354231055e+00 9.301303035126489149e-01 1.108355270685858596e+00 2.462713484040147671e-01 -4.023107297088232559e-02 1.131550618418093457e+00 8.816588317353073467e-01 4.957773430205537069e-01 8.784201703571701270e-01 1.465753207750011278e+00 1.111887183281735414e+00 4.746194664229965166e-01 3.629947218241184603e-01 5.445860928277472812e-01 1.315977497913716487e-01 -8.535754103715546826e-02 2.602044404407288791e-01 4.825683892076392811e-01 1.076599645595494703e+00 1.860795926553825641e+00 2.076470815021559668e-01 8.297359466923439619e-01 1.759013325956399143e+00 5.484438102179665098e-01 3.173341280728080860e-01 8.244797291924437221e-01 2.937390360157388636e-01 1.479905855007207283e+00 7.276604248988438606e-01 4.569052336345781895e-01 1.544740190759855247e+00 1.490560039625514088e+00 8.949829351432436741e-01 1.814151490061508110e+00 8.454317744998676165e-01 8.807655418446516116e-01 7.253828011006879795e-01 1.825083425249426072e-01 1.215677847280155266e+00 1.090621205802730254e+00 3.874037078644591570e-01 1.735253942549004336e+00 1.680105672770788594e+00 1.056716255789097891e+00 1.595444929286728986e+00 1.168036701819556017e-02 3.573907160219735313e-01 1.750983491883640664e+00 1.648405978525024906e+00 5.281143163996691037e-01 1.345642709399048620e+00 -1.236453317199386476e-01 -3.473557457908326221e-03 2.395555092085782378e-01 5.324272292813143626e-01 4.443786865301834754e-01 6.272519236100506657e-01 6.231454868563619520e-01 4.197097434427983775e-01 9.897927418136871491e-01 4.937383213197368836e-01 8.514598316618369189e-01 6.389324549280332721e-02 -4.089111954885174538e-01 -9.392252754808358972e-01 6.546772297041285604e-01 -8.641637325885649368e-01 -9.270926703309991801e-01 -9.758054372854970682e-01 1.641228669260836881e-01 3.489443306829972946e-01 -5.274124789624299314e-01 1.040980025439238954e+00 1.065415739476530677e+00 1.757173895893017423e+00 7.056434378202420810e-01 1.650320328223475741e+00 2.137542414068530905e-01 1.359703266706937974e+00 9.762394460077303826e-01 6.512280933901466451e-01 1.674197413986788563e+00 4.279565144760277273e-01 2.064679332376604115e-01 3.387098696423219146e-01 -7.575564187204623934e-02 1.243450602648472209e-01 1.563997890295760973e+00 2.340511899821232089e-01 1.101653567091976704e+00 9.352622574077519568e-02 4.276267618148646421e-01 -1.667704093992709691e+00 -2.146826610495149446e+00 -1.450757431928016761e+00 -1.864425115109186404e+00 -9.218601836190525312e-01 -1.891144312832701679e+00 -1.210016070185157222e+00 1.542819915161835198e-01 -1.373913879289075102e-01 2.728266458715414289e-01 1.227048760549812156e+00 1.544489466218926577e+00 1.126771193234619606e+00 4.140802341808066944e-01 6.343752162905575975e-01 1.393363786030477058e+00 1.435738912452851679e+00 5.395046392736457808e-01 4.958549070099724787e-01 1.186396014834631835e-01 9.056713975268804173e-01 -1.308381414259250919e-01 7.638072530049517805e-01 -7.620241812860921449e-02 -9.327855990652877960e-01 7.541709476254504496e-01 -1.552576807606622367e-01 -8.475467727031592569e-01 -1.245473104113068663e+00 -2.142910160354964955e+00 -2.675733743608581072e+00 -2.408413179397706827e+00 -1.837676035197821856e+00 -5.724921467121021346e-01 -1.621752297053983050e+00 -7.133102175150403124e-01 1.557861673062245211e-01 -3.281724468714572462e-02 1.893205498097564110e+00 1.345675956573933796e+00 2.022621046528606747e+00 1.258186364981490168e+00 3.570913440847821030e-01 3.007062591423533271e-01 6.927802442859980481e-01 8.072479026778878186e-01 1.657787325942438494e+00 3.253039116219762494e-01 5.002526489104605067e-01 -9.403259125138914154e-01 3.666905482305490849e-01 1.008170432487848350e-01 -7.207519362101065530e-02 -1.071208044069847792e-01 6.575542408033370201e-01 5.737429717901024878e-02 -1.125378281911494582e+00 -1.623518266628413365e+00 -3.444601631521695850e+00 -2.700750129969223590e+00 -9.094905136734261486e-01 -1.049073974472855886e+00 -1.653285189089152007e+00 -3.367006377606446277e-01 -1.440106800017804778e+00 1.421450829716420561e+00 1.609947175527099983e+00 1.994368985549712647e+00 1.479685095058022704e+00 1.706853152167167931e+00 2.475683121098943840e-01 3.341479576705706778e-02 -5.534212799145621364e-02 -1.466450445818367199e-01 -2.673428628034658083e-01 2.439823061627027223e-01 -6.401267921271729389e-01 -1.239249204427005147e+00 -1.620785882345187501e+00 -9.229957501562051359e-02 -3.368152528485059416e-01 -1.199589972515040737e+00 -2.099843579745028777e-01 -7.500733904627423509e-01 2.870603989163779679e-01 1.104658140952892831e+00 -6.667696355912654527e-01 7.567564197589886632e-01 3.810885695900897430e-01 5.778084620815734374e-01 7.043180314858383806e-01 1.418330354596251563e+00 -5.392764754286079043e-01 1.183446944435617265e+00 1.176370584539226050e+00 1.820016106353497198e+00 2.497148080356199618e+00 1.738067639761070815e+00 6.164090598465712389e-01 1.428382399105773415e-01 1.735113990590420929e+00 1.335503997926699160e+00 -2.519530475317173779e-01 -3.043812851166732281e-01 -2.021995594146903663e+00 -1.656123314066184848e+00 -2.249682562436523536e+00 -6.061215511197877159e-01 -5.482601013071164431e-01 -1.118458922087247620e+00 -4.735195532752540237e-01 -1.448728460143646313e+00 2.895379674330026409e-01 2.077806198758443301e+00 2.391749242156721689e+00 3.054521233998863217e+00 1.139754620937339702e+00 7.794323613208364865e-01 5.711860303770328606e-01 1.824314177016965466e-01 1.051980231095673179e+00 -1.701928598162334660e+00 1.942896585358735440e+00 2.972914408654699692e+00 2.477677472630652744e+00 7.399776655216989685e-01 3.189407943469372841e-01 6.208510897833963149e-01 1.092742188278579940e+00 8.219662564201124511e-01 -1.526849128787342857e-01 -1.549090150868609017e+00 -2.305697801310482298e+00 -1.805639266247466734e+00 -1.617280217882607785e+00 -8.315444613836216192e-02 -8.628825776245668822e-01 -5.804418037097777150e-01 -2.269418154693971346e+00 -1.645906910448116767e+00 -8.493532601970501528e-01 5.385256621463956062e-02 8.146915589679019076e-01 2.002463640759330477e-02 1.412557906095641691e-01 -3.203821859211198331e-01 3.864286447199585250e-01 -3.683125961453877495e-01 1.103697822006835416e+00 -1.073613196713416817e+00 1.778508487915154701e+00 4.214464469395463375e+00 4.133880114064555578e+00 8.997481030304039784e-01 7.455611949247740178e-01 4.527782644226408526e-01 -2.499099143592264094e-01 -4.583788305674448282e-01 -1.344949711468871101e+00 -1.382254535495031966e+00 -2.342749488317035667e+00 -4.279641077551922801e-01 -9.198132352513652688e-01 -8.072362225027978067e-01 -2.627932031173976779e-01 3.505689388442511101e-01 -7.005426461989211484e-01 -2.469914122956974989e+00 -2.553380242887677287e+00 -3.950512162441624398e+00 -3.509482088437980707e+00 -3.024515904325836058e+00 -3.074325024782743387e+00 -8.090639134354694617e-01 -1.788462707009421671e+00 -4.630636925399334025e-01 1.434117592787885198e-01 6.754966547161814772e-01 2.557237539533110393e+00 4.852058862388318516e+00 5.389951913031495678e+00 1.158021059700403255e+00 8.798133141693716963e-01 1.456333866829299328e+00 1.053294030205656373e+00 -5.915248864638096293e-01 -1.448938965775493193e+00 -9.517218304879976332e-01 -7.298914229840600676e-01 7.412802676511904831e-01 7.585283395447844912e-01 2.241595329646393964e+00 1.704324598541721913e+00 9.975519779274439891e-01 2.600430845235179422e+00 -6.345251040572111867e-01 -3.103046082473051026e+00 -4.228875213833777735e+00 -4.998735049476777270e+00 -5.167153620668242908e+00 -4.729285972949858419e+00 -3.839662672035931035e+00 -2.393044710988604606e+00 -3.529139955253830507e+00 -6.633168815498853288e-01 -7.054801948129946210e-01 1.239180535276274808e+00 4.797233159787639423e+00 6.102716901732667232e+00 1.555534952793645065e+00 6.003044795606411466e-01 1.100899459062217645e+00 9.209010175526858299e-01 7.893242782824351211e-01 -8.486793862981742986e-01 6.044322512400886888e-02 6.424725078982239657e-01 1.537967866846191578e+00 9.796512347194402670e-01 2.339805824933248068e+00 3.280085678236753122e+00 2.179189348578373764e+00 7.670111779186452594e-01 -1.735051276690075417e+00 -3.093085078600541493e+00 -4.458542730623449302e+00 -3.965282284300144511e+00 -3.321144477818862129e+00 -3.185971049526894028e+00 -2.763856098959003749e+00 -3.110414169837309561e+00 -4.391038162441583736e+00 -2.811973155697418125e+00 -3.055943538078563115e+00 -2.633888511762732865e+00 6.417056400385953152e-01 2.724338634386447300e+00 9.512263371451864513e-01 1.809374422088140477e+00 3.767408454654201377e-01 7.906146025555733647e-01 2.610219945719735035e-01 -1.132274175235288061e+00 8.198378161976578593e-02 1.322929076862193964e+00 2.594137121502597676e+00 5.191837261573113427e-01 1.499271594205224822e+00 2.353140289588957934e+00 2.793445386586971502e+00 1.625046045342487533e+00 -4.833938149570084913e-02 -4.341352700756945238e-01 -3.068822954724378160e+00 -3.050783041207224322e+00 -4.010893517803016728e+00 -2.612703047906366205e+00 -2.357662115370949163e+00 -1.145817839936195348e+00 -1.812948101676360446e+00 -3.005830623680043168e+00 -4.195831645957739831e+00 -6.269002639126521892e+00 -4.222306307942890413e+00 7.820227310218395844e-02 1.982774719981717615e+00 -1.206197426355108265e-01 1.697581939584703825e+00 6.726502436945667185e-01 1.377173755901896390e+00 1.098952283006688235e+00 4.008895136315706043e-01 2.783631564549889692e+00 1.377665048677145565e+00 1.541422059462277394e+00 1.661407611604935664e+00 2.239426198659494993e+00 3.166302752106613827e+00 3.065986571840849439e+00 1.886728449692177456e+00 1.453099500554694279e+00 -1.054989227369087734e+00 -1.934399594620493490e+00 -2.450400589605711499e+00 -3.067325732174636332e+00 -1.046770963162386936e+00 3.485828808923573940e-01 -7.400687819749552920e-01 -1.473236581222917119e+00 -4.236160787603939326e+00 -6.775555366014468284e+00 -4.556043972506043538e+00 8.565374745672251766e-01 1.316232427169105712e+00 1.223244051515961939e+00 -9.025327891280819637e-02 3.648124167501661241e-01 -2.982258801230702194e-01 1.097762151146594478e+00 5.560371339089816844e-01 1.519068410087658139e+00 -6.163849695292464848e-01 -1.909527420826304667e-01 1.070471638089832478e+00 2.244689899066061756e+00 3.687910083641261494e+00 3.368765241964730706e+00 2.242588360628504418e+00 -1.232657481662757376e-01 -1.879740740163203805e+00 -1.791988448727671157e+00 -1.025764561611075765e+00 -1.164020751156497502e+00 -2.135803282059962616e+00 -2.673382535263032711e+00 -8.524145534305258565e-01 -1.204433584816288150e+00 -3.561115039464363363e+00 -3.994816697653631454e+00 -2.497464431536965179e+00 -9.922547519708413422e-01 -6.560608784086367773e-02 1.013252669042145726e+00 1.242126796947351952e+00 9.494224562008157786e-01 6.461255531526415297e-01 -1.070558737352361595e-01 3.666450082589703952e-01 -3.812425612636478056e-01 -1.781671262729837002e+00 -1.873154033110070005e+00 6.962575710108076521e-01 1.538737802763329166e+00 2.370300317541343293e+00 3.411936853184939000e+00 2.026282276897453549e+00 -1.183030543135745960e+00 -4.142168264009508327e+00 -2.200656285384118505e+00 -1.777467829753380135e+00 -2.422386669690041128e+00 -2.516801380980194569e+00 -3.085622377272879024e+00 -3.042674812800202133e+00 -2.425641614707175986e+00 -3.277765173821194367e+00 -1.089311402616251367e+00 -1.930842542062583433e+00 1.040037040046680961e+00 1.632906229801336373e+00 1.287384194395522652e+00 1.762216440410525387e+00 1.068272759430999752e+00 -2.184204391611187235e-01 1.068711526683384427e+00 7.894328403558200646e-01 -1.146654628250280306e+00 -2.117411927373135772e+00 -2.959023356534334681e+00 -8.004848548867252722e-01 -9.732937058701590649e-01 2.998070594737942685e-01 1.108217769317778822e+00 1.092381197599369802e+00 -1.415965457554513973e+00 -3.474532303841036285e+00 -1.536141678638393238e+00 -1.125598098854569962e+00 -8.736952776490098938e-01 -2.062015468654875061e+00 -2.067171372499901238e+00 -3.200471993976428564e+00 -2.352561939556035764e+00 -1.109856436180360229e+00 5.028414485409001822e-01 -7.417519660645696122e-01 9.876431366220017605e-01 6.369055323472304631e-01 1.105853711343655760e-01 1.801077314443852551e+00 1.589051199443325846e+00 1.130896596166200307e+00 1.583446103243849823e+00 1.595195586882353078e+00 4.550431287322972418e-01 4.498473855152172463e-01 -5.209363842272032308e-01 -3.199062212175338260e+00 -1.962927988880522667e+00 -2.585451225194257407e+00 -2.779103463211683334e+00 -2.100665415765551103e+00 -3.559820471714167933e+00 -3.927664903567629207e+00 -1.577666569730263424e+00 -4.870984599838943940e-01 -6.000750740965457020e-01 -9.991365752550391832e-01 -2.984101022473754750e+00 -9.830849859640300448e-01 -1.721523965697014047e+00 -1.579994925498766190e+00 -5.221427903913448132e-01 1.389101774751638319e+00 3.530936237069999262e-01 4.325258665368019173e-01 5.646043706541254981e-01 1.037969072075789700e+00 1.683563391553156485e+00 1.460386839432859407e+00 1.130213754286699013e+00 2.593736539847035782e-01 3.915698523972157563e-01 2.059451971755143607e+00 6.059475678713760471e-01 -2.364220231555059115e+00 -1.799496434864344518e+00 -2.322686038889591131e+00 -3.094426680104466421e+00 -2.328428784444604993e+00 -3.284766837295769459e+00 -7.072370210297445059e-01 -1.809231585810548326e+00 -1.160817604384769552e+00 -1.196434695518061586e+00 -3.554982359307426787e+00 -2.263566425937225457e+00 -2.446454385928003017e-01 -4.351589646306763814e-01 -4.150774671766521151e-01 2.227546317467884229e+00 5.092970787756114781e-01 9.376453067384923346e-01 8.484336276222088635e-01 1.548712940218092360e+00 1.035011834554599552e+00 1.325801726753346177e+00 8.026374680384629895e-03 3.961550719730635647e-03 1.484444758035256218e+00 6.864087679271093645e-01 8.135847652439388566e-01 -3.328698830430116828e-01 -1.486611433794015058e+00 -1.961503481674464977e+00 -3.091269656660879939e+00 -2.963629762022757408e+00 -3.051091675992763097e+00 -1.585630652579360422e+00 -2.415091317052623587e+00 -1.558288257724978365e+00 -2.581555025625069888e+00 -2.078630676414931600e+00 -2.014948629947739711e+00 -5.498990723023092775e-01 -5.631580328296383886e-01 4.137394549800837429e-01 2.570236680222350856e+00 2.107233386969034505e+00 1.380803576811719946e+00 1.714148185094990506e-01 1.282128820411893244e+00 1.360617734559137038e+00 1.344988871927672136e+00 1.680269864133255187e+00 2.268549782553022365e-01 1.142982220642516422e+00 9.226401652836238032e-01 9.042906637297782879e-01 -2.553346551686372368e-01 -6.927223321951090362e-01 -1.999875945645631647e+00 -2.990697269618529663e+00 -3.694888540691260825e+00 -4.088302146178187435e+00 -3.830069328143321350e+00 -2.649991599902625339e+00 -3.509675850430255650e+00 -2.708077921544585376e+00 -2.333731769082066254e+00 -2.408638549188722333e+00 -2.258217518768790733e+00 3.788977329540423877e-01 -1.363152448016277940e-01 2.145799050746951764e+00 3.638930292061810956e+00 1.852186436793684665e+00 8.541555487435668059e-01 1.004766785552120067e+00 3.236850880779861689e-02 7.187410761690611327e-01 -8.710248783620454238e-02 1.808240103758700368e+00 1.625153210327250131e+00 -6.779664991987368605e-01 9.823527552904762761e-01 2.049771769947109357e-01 8.997113023433010726e-02 -1.243169492693233291e+00 -2.758889809330611786e+00 -2.212901486599797796e+00 -3.356968377637203904e+00 -4.276260081559374981e+00 -4.669585940868485885e+00 -2.367869979574783290e+00 -4.117933071032091163e+00 -2.265727644230229210e+00 -2.199333913039803523e+00 -2.377470002460805087e+00 -3.051625407373764975e+00 -1.402409039352110698e+00 1.809064761521039122e+00 2.599050799754062169e+00 2.558791692451861444e+00 3.220593086622511869e+00 1.199869320835139863e+00 8.271107834073851972e-01 4.243063603325722410e-01 2.461496473563479226e-01 -4.099804527046292668e-02 1.735052464315754328e+00 1.201072257327339576e+00 1.240389478948878299e+00 5.897378784799909290e-01 -1.150282498693165234e+00 -1.349684808247437751e+00 -1.947472601498698497e+00 2.848854011821281840e-01 -3.873943986991244537e-01 -2.153165800160250942e+00 -1.693823811257003653e+00 4.825045326558785597e-01 -2.369541092096489124e-02 -7.986721147346639293e-01 -3.053921386407324245e+00 -2.019009025850901917e+00 -2.848080184911609081e+00 -8.808078246220598650e-01 -8.691713601023178803e-01 5.506208415890909702e-01 3.053510652454643814e+00 2.315809718688512930e+00 1.480887034065616614e+00 1.036274232442379262e+00 1.960775699687419826e-02 1.517951350188609938e+00 -5.463110204537620362e-02 4.444353291479327672e-01 9.953771148979198014e-01 3.548730297835803182e-01 1.817328403078882326e+00 3.473919638889335082e-01 1.228150246057103101e-01 -1.650292185331316830e+00 -6.438015914100462256e-01 9.480321453660861541e-02 -1.090819316765645614e-01 4.353937247234259678e-01 1.798557043100388775e+00 1.787240395945251525e-01 -2.597599529850531108e-01 -7.449144470122843753e-01 -6.121553111285074067e-01 -1.113591506904552247e-01 -1.634744000381776141e+00 -1.178204779714309369e+00 4.991160632519422991e-01 2.401071171866052900e+00 1.165165880868646031e+00 2.170848793543852295e+00 2.855699803015397720e+00 2.376279782117928008e+00 2.532023499678170975e-01 1.320591043048695123e+00 1.091588985312013538e+00 1.780459268209447110e+00 2.798703176312671848e-01 -1.063653910010562004e-01 1.708667887336513980e+00 4.266811510399726171e-01 1.770358303936569178e-01 -9.533470760500396546e-01 6.746864858540290166e-01 1.204529236919660434e-01 9.616063870657473034e-01 9.096278975047351611e-01 -3.266219839896664645e-01 9.976285859275848544e-01 1.236979929269561296e-01 1.097597646359661505e+00 1.112587491884784452e+00 -2.974096455757047064e-01 1.994810230028939979e-01 8.045572768047992707e-01 4.735813059717255968e-01 1.838568927468831937e+00 2.233426503474583935e+00 2.674161688358455802e+00 1.254575833619148151e+00 1.192568242709755477e+00 7.536754742707107990e-01 1.565897941453368247e+00 1.030978909130743304e+00 1.806909723134530577e+00 8.053617989466184124e-01 4.422913653001872558e-01 1.649908178932353753e+00 1.092403451184311036e+00 1.222231585187608882e+00 -4.374640793478451473e-02 2.969982764223331739e-01 -5.603413879126232233e-01 2.154249776881259626e-01 1.407929806556432517e+00 8.484100400370016004e-01 2.347954247464790534e+00 1.044268211130818580e+00 4.170397929978425511e-01 2.014524632901158796e+00 1.246680495876190786e+00 1.495347086598296071e+00 1.857000977685468346e+00 1.385973992500010965e+00 2.979621554828256524e+00 1.805749353057772177e+00 7.418931963140344976e-01 2.072181728147362900e+00 1.448398642665585712e+00 -5.223221874500974526e-02 1.325646017129119780e+00 7.976530243573491941e-01 1.211897350016467367e+00 1.122945761771051654e+00 2.461255548536177284e-02 1.435501105795464749e+00 1.195155157458391848e+00 2.739698947861332057e-01 7.255846163516447289e-01 7.162548385246620963e-01 2.568641322680193517e-01 1.129745163174696643e+00 -4.320136790206971500e-01 8.987175047486513357e-02 3.454148481802555848e-01 3.087050737724318927e-01 8.770128717552581055e-01 9.439455126614118008e-01 4.581858023468867169e-01 -3.396964659513369011e-01 1.337720653137630666e+00 1.313278610003114355e-01 7.727699304474504594e-01 1.706881711165791016e+00 2.236357272731466506e-01 1.426615907362928759e+00 2.549848044272898795e-01 -1.142869357268576774e-01 1.198748669930193994e-01 -5.641400413721684923e-03 6.997670654336933527e-02 2.329382131299166658e-01 5.954880524212986526e-01 1.418505349582919184e+00 3.248174681662581720e-01 1.604097519680696138e+00 7.947101454397615949e-01 9.706856911331352977e-01 1.614417182036619047e-01 1.638687221570818142e+00 6.159277276468732021e-01 -6.787162492010242673e-03 1.347382586102385371e+00 9.690902260020370917e-01 4.570502881451217747e-01 -1.018773437001239263e-01 1.665936014139842436e-01 2.416804241369957529e-01 1.384559384745603916e+00 8.069558319716079176e-01 -1.489528154292442397e-01 3.098357479319279739e-01 5.331712938355543940e-01 1.469439182037153735e+00 2.713716343892371152e-01 1.073506261483567314e+00 9.310513866164207286e-01 6.589364705614142448e-01
8.149431128456045004e-01 8.422438309510064114e-01 2.039461157348572140e+00 2.239182400386448446e+00 2.223574166131730312e+00 5.287621424856293606e-01 2.252793638251989972e+00 7.333139766965955930e-01 3.113545252434209432e-01 5.716445210323785053e-01 1.694911637807125837e+00 7.493514547723586494e-01 7.976665120347251614e-01 1.737136132187195647e+00 9.849941364281973311e-01 5.828018257243697819e-01 1.485592240026808009e+00 1.767773158574887704e+00 8.650032285416994204e-01 2.923603649832308693e-01 5.999231559141654513e-01 2.243067535725288497e+00 9.068044502069679824e-01 5.446247843012691492e-01 1.097198951155257118e+00 1.535627282602040511e+00 2.104512422528123761e+00 4.537470139083817355e-01 5.885297219507202859e-01 1.281736157978600632e+00 1.399322645259056808e+00 6.175056044677359468e-01 1.944227198870389417e+00 2.100778705865675722e+00 8.574751434275652562e-01 1.407511931043307074e+00 1.601920418247562372e+00 2.171504454320646094e+00 1.231822043006640000e+00 6.784467801164445477e-01 4.018914854504596623e-01 2.005616033744288540e+00 1.966909177777062645e+00 6.220348864031165492e-01 1.944620907903406914e+00 4.501104106881859690e-01 1.424869793262331319e+00 1.425331589433586954e+00 1.515406370370561140e+00 2.198475967920183738e+00 7.083887267955913947e-01 1.701352762103531147e+00 1.806814875457462444e+00 6.016453568082819059e-01 1.239293668465368148e+00 1.657244458479191662e+00 3.672059566401934538e-01 1.703268036782359607e+00 3.145966950467330991e-01 9.593411178433511877e-01 1.627937693729755830e+00 9.239206238804359428e-01 7.179355793434282207e-01 2.005408096638348070e+00 1.137469117620327541e+00 7.325215817788498229e-02 -7.916746681072041325e-02 1.697420952220438650e+00 1.081681256948765046e+00 5.736238388439465069e-02 9.080960473178271153e-01 7.101365239561931997e-01 8.476438035313934583e-01 1.440806335895010726e+00 1.007209826936983355e+00 3.069152983333369722e-01 1.070492885260045934e+00 1.746735088295890748e+00 1.984721405544614736e+00 1.439678523715461678e+00 1.590671477034788284e+00 6.460346102482404929e-01 2.241359469039591712e+00 1.932989804706327641e+00 1.384494352754710667e+00 1.737600059346832149e+00 6.841853843939075253e-01 2.071545643514051349e+00 2.734740189486773998e-01 6.631523047021526951e-01 1.120900729974152021e+00 1.549153371627481901e+00 7.705161147277148626e-01 1.557813074042690982e+00 1.055594750334997167e+00 4.396715418532032849e-01 2.850413529469487950e-02 1.716688765156644259e-01 4.209652105942791184e-02 1.657114026728528922e-01 1.717494612090361805e+00 3.161696935565966315e-01 1.644007120676193867e-01 1.539696404785953376e+00 1.197534483625069646e+00 1.837596651557901639e+00 1.457272272592322893e-01 9.282961561141127582e-01 1.335053875760344955e+00 2.209877607708076397e+00 1.401690254020963922e+00 2.237518315672581526e+00 2.235633981516417013e+00 6.651383096300013120e-01 2.174215724921805482e+00 5.415623593325966656e-01 4.842317222401811838e-01 1.207120926360597979e+00 1.941301483480025514e+00 1.945065823172292818e+00 3.111320076061208639e-01 4.057644081952928583e-01 -4.509056259833310598e-01 2.990069231173330122e-01 -1.214861967814203358e-01 8.962466237027375549e-01 -3.407942692787873651e-01 1.585274938737203307e-02 -5.357287189568804564e-01 -1.467288190305847673e+00 -1.412736397940624444e+00 -5.510150310454891009e-01 4.827535468670325347e-01 5.409959351046469411e-01 6.900639398266749103e-01 7.235083236092970660e-02 8.325449203305257395e-01 1.578578349438988504e-01 6.112404423948706311e-01 1.930159091887248879e+00 1.035711927095038343e+00 1.106150916556761343e+00 1.635481553637683216e+00 2.140198269735730019e+00 1.782405944188467650e+00 2.374716282922118893e+00 2.049401355494520072e+00 6.647418134579566873e-01 1.191568652302837261e+00 6.752829963229529664e-01 4.576551149414385122e-01 6.956798762842075767e-01 -4.997382296571555305e-01 9.740655150154772235e-01 -6.894121069764345133e-01 -7.826530406859347755e-01 -2.766018673712627329e+00 -3.128143518635851716e+00 -2.899014737068112080e+00 -1.708089738621141329e+00 -1.526768676739351793e-01 1.327854866289348290e-01 1.981746697443884653e+00 2.030776601782658286e+00 2.987924089338837019e-01 1.271455227344729710e+00 9.652686811668208522e-01 1.999002648197869547e+00 1.652960327411758579e+00 1.554503461171646839e+00 1.446596138009175636e+00 9.341190031589524656e-01 1.753378386880132478e+00 1.601875859158654158e+00 1.912792544572603060e+00 2.590634283377215019e-01 6.845881855979738528e-01 -7.178950251339322186e-01 -9.021434786616284729e-01 -4.803190307056833808e-01 -1.105938785793439738e+00 -9.166956666542310783e-01 -9.244041957061697179e-01 -2.347396171989796887e+00 -2.817364301190277143e+00 -2.023052034202013516e+00 -2.257933560478909918e+00 -2.525671218926889949e+00 -1.120487076574417040e+00 -9.913124783965658882e-01 3.861095927882338685e-01 8.101203510498966587e-01 -1.855657330981638764e-01 2.438205924367693733e-01 2.918250463978757092e-01 2.022737602668687185e+00 2.808790395438343634e-01 3.126342367853356952e-01 1.377688271202957671e+00 1.315638510349214307e+00 1.067869375071544669e+00 8.089341062447646946e-01 -6.514725968955590307e-01 1.952750157807711662e-01 -8.630254923576163861e-01 -2.437683324225063508e+00 -1.277310053439885573e+00 -1.036389765247315520e+00 -8.204839326175721315e-01 -1.598263338773562747e+00 -1.836224893141976899e+00 -2.837564129735755447e+00 -1.429700221536945426e+00 -2.700226977805376016e+00 -2.426916967382913182e+00 -1.672765931058700639e+00 -8.272565990425024829e-01 -1.669745553254495807e+00 -8.736647163740651756e-01 -2.636568435688308454e-01 3.468557285567702014e-02 2.293069042983413020e-01 5.059856766527311978e-01 1.729649091154438212e+00 1.920019087130446112e+00 1.557879035747652408e+00 1.518814001825959492e+00 1.300992947306890413e+00 2.102846148801758464e+00 1.067791564637406987e+00 1.358407714839172387e-01 -1.856003108994997319e+00 -2.160915552203595436e+00 -1.990560550716589994e+00 -2.613948092839974535e+00 -3.602161733847768055e+00 -3.221174299749485659e+00 -1.650159135744945882e+00 -2.168109456410737490e+00 -2.062038052294209667e+00 -2.245910416943960097e+00 -2.210379462268190931e+00 -1.657367805709882846e+00 -2.178182138300591042e+00 -2.772687831528879432e+00 -1.947278899564033772e+00 -2.384050248748536216e+00 -3.441376767251095981e+00 -7.285887049864292475e-01 -7.700189003214776007e-02 5.346690570408708237e-02 1.600105804833529932e+00 6.521482959953220915e-01 5.673306170129922554e-01 1.479384271302412124e+00 2.336666831333828132e+00 8.782932897323495469e-01 6.078759549188684774e-01 -1.612938341384133167e+00 -1.546107074266308112e+00 -1.796445889128275963e+00 -3.455778650798723373e+00 -2.411493301608329531e+00 -1.989131512658725010e+00 -2.925898147834497642e+00 -2.054976769461101416e+00 4.738334550217019325e-01 1.760779936851786465e+00 -6.303570209011304382e-01 -1.510151937392769872e+00 -1.353800398443226305e+00 -3.419907068306706321e+00 -2.722219680231501293e+00 -3.920684637528682792e+00 -4.531245269212460514e+00 -3.675166621615080675e+00 -1.918064481812526312e+00 1.113447250115443127e-01 1.642458523212462662e+00 1.759289260818642120e+00 9.971863039883726021e-01 1.390054214012602873e+00 1.069585579883407744e+00 8.421689211036509359e-01 7.579384445199858211e-01 1.210906193263850295e+00 -1.061652315104265387e+00 -3.175955335771753152e+00 -2.303543176322727870e+00 -3.094010610729424293e+00 -1.072582204542324558e+00 -1.683403765334794411e+00 -2.188349017393500073e+00 -2.291182043688392955e+00 -1.382269697673351450e-01 2.768694041448422460e+00 2.230637661143531680e+00 6.342344870464794448e-01 -2.223735109735037963e+00 -2.567847213603007717e+00 -3.618716805111954038e+00 -4.566121219780026053e+00 -4.185557092926330824e+00 -5.095843077556004630e+00 -2.247242364910500001e+00 -6.101079042316573942e-01 5.240275591542573608e-01 1.900960041411400292e+00 1.798670503649336228e+00 1.048632950790940876e+00 1.693128020469353290e+00 7.579665912072021117e-01 2.010232014654734112e+00 8.947353792081979007e-01 -2.496360761309143861e+00 -2.670353088342557690e+00 -2.615765705258154217e+00 -2.638189219980208833e+00 -1.726141306800003106e+00 -2.745228299794650439e+00 -2.293463598261141101e+00 -1.510706523690696690e+00 2.356305872268543045e+00 5.022470480392411396e+00 2.762914873583938835e+00 9.486388918674195647e-01 -1.566467855121909558e+00 -2.034118680809220869e+00 -1.422594743773552883e+00 -2.204594279015974045e+00 -2.399640022508048975e+00 -3.309820530182340459e+00 -6.370852386565180048e-01 3.355257413533075939e-01 -1.193040685446300009e-03 6.395389132225454132e-01 3.305235076111947001e-01 6.025104263620119083e-01 1.778122561630835818e+00 1.132660938889694879e+00 1.292840931926552805e+00 4.942271685826156724e-01 -1.608593497500054204e+00 -1.405001838320053320e+00 -1.073614590384643463e+00 -1.486864041081812138e+00 -2.088224848082105289e+00 -2.764039089372192670e+00 -2.112455937350794510e+00 -5.058189390112716177e-01 6.326709850203629415e+00 6.196007316363266959e+00 4.298745937319513821e+00 1.980040732887072163e+00 9.431669468786295640e-01 -1.066351075946427196e+00 -1.989337188081646834e+00 -2.417073313799102952e+00 -2.156008005896840718e+00 -2.199824321006144334e+00 3.446085431751694794e-01 1.959854143440993512e+00 1.274103782482327585e+00 1.851119438608408219e+00 2.097289499953719716e+00 1.845717473682296772e+00 2.688665416060495583e-01 2.008833235093447467e+00 7.819409802613117577e-01 -7.033959521015691330e-01 -2.789839123660563303e+00 -1.826028455727531918e+00 -1.708931907179578047e-01 -1.947938286438200661e+00 -2.654736908787107552e+00 -3.150098502959756352e+00 -1.470058842026488399e+00 3.657419079338684931e+00 7.294431652154766965e+00 4.732836013191586311e+00 4.534879784117506141e+00 2.593276703321888643e+00 -1.746151183473682589e-01 -1.045470863148701524e+00 -2.965232175954238603e+00 -3.140630350801463688e+00 -2.883292513465224527e+00 -2.570069721336826873e+00 7.656272207297770693e-01 6.468590824426835306e-01 8.019976764099757682e-01 1.355809845147498249e+00 1.144119555343793282e+00 1.226142657036733086e+00 2.705500067724448399e-01 1.403317952432891369e+00 1.434714847715091501e+00 4.388554971973595425e-02 -8.958681054634705099e-01 -1.498957012898059826e+00 -1.762712697967135478e+00 -2.150188371101187990e+00 -2.812384276826418006e+00 -3.670019714683890655e+00 1.235946343967050387e+00 4.120199675732098221e+00 4.773331451780967960e+00 4.270714786467467050e+00 2.376236694483279344e+00 -8.438094186083779395e-04 -1.000619126634344047e+00 -1.140608067799097292e+00 -3.456493100266350371e+00 -3.259104458603194310e+00 -2.820616830565740418e+00 -1.184421285965379544e+00 -9.750987088918863233e-01 1.935240566642832283e+00 7.224394669402361968e-01 1.483191787494794189e+00 1.223370387398860837e+00 3.834987304604131064e-01 4.197398219049473522e-01 2.024287506957589411e+00 1.729043109214937868e+00 -1.440585449479531821e+00 -1.293291596656232834e+00 -3.362948907932146181e+00 -2.892107953195622194e+00 -3.359261157980625967e+00 -4.906455925529789042e+00 -2.899254696661750064e+00 9.660677624117011142e-01 3.958403059888057740e+00 4.374167866817373351e+00 2.994610042851435505e+00 1.961648164097228753e+00 -1.574521343951605257e+00 -3.468623350173924091e+00 -3.744904454178780373e+00 -2.606326805331528274e+00 -2.297130736086389735e+00 -1.109354337587502348e+00 -2.494051545168681105e+00 -1.032861398195414449e+00 2.003278748759909966e+00 2.032759597951471875e+00 1.784091912537539626e+00 9.789570804705006735e-01 1.776007343254304649e+00 1.413847079654371397e+00 7.359608920837241719e-01 1.896362405757385794e+00 -8.791094611107402867e-01 -3.079926554602699706e+00 -2.596804876877588875e+00 -3.609883437776409298e+00 -4.124338110434560001e+00 -3.226768344300463109e+00 -1.422901684272275924e+00 1.131211808325026658e+00 2.421704455767413222e+00 3.753175428580336703e+00 9.917345740051100034e-01 5.936668688361498858e-02 -3.737857459776100288e+00 -4.576860169288355706e+00 -3.898045890190004137e+00 -3.074047306886981801e+00 -1.473521389208058530e+00 -1.787127956250560201e+00 -5.529748174575440656e-01 1.323822733580790750e-02 1.453599835625449144e+00 2.230688246236225414e+00 6.939279998805888416e-01 1.409936231669532303e+00 1.836187639493395585e+00 1.390277989922958257e+00 2.024711775812541248e+00 1.448195988691337810e+00 -2.428082122576650903e+00 -3.992016610570365387e+00 -4.157120414944522224e+00 -3.366042460779834933e+00 -3.614884563151530283e+00 -2.758933835128786427e+00 -1.788594964418522837e+00 1.777037138543218875e+00 4.265622542948431573e+00 4.295261512325314612e+00 1.568276684081408634e+00 -2.954893506477966447e+00 -3.983231027991457118e+00 -5.068271577830270047e+00 -3.852528170926726503e+00 -2.450867932771997992e+00 -1.356557696759441933e+00 -8.034542102592491242e-01 -1.799267528730017940e+00 -5.934037565303752482e-01 2.339792778338312118e+00 8.388621645561051832e-01 9.458186131992675216e-01 2.113678057445742109e+00 1.131991129456914935e+00 8.796548468040897850e-01 7.819973656442468224e-01 -3.542574387634018773e-01 -1.093680560682948277e+00 -4.621279686003083143e+00 -4.849537464884051907e+00 -4.976835751321189605e+00 -3.822729602629081125e+00 -4.429567664828891083e+00 -2.833776543660557312e+00 -6.003458589986181426e-01 1.440845090043649801e+00 1.120054284523235966e+00 -1.352756105163002598e+00 -5.372095727980955360e+00 -5.766788887864461088e+00 -4.797162187024094138e+00 -2.811598486742983294e+00 -4.652016362088490231e-01 -1.749935463752989584e+00 -5.252481157072237394e-01 -9.742792202597059248e-01 2.339577538578526544e-02 1.809642605864076437e+00 1.153554960474712399e+00 1.879356601758239931e+00 2.250893850164021881e+00 7.128816886201506664e-01 2.649347935255361164e-01 7.757288749837303321e-01 1.420958207608649770e+00 -2.098492759239629635e+00 -2.668287182242697231e+00 -3.254369359174206444e+00 -5.679299051894337147e+00 -4.816553006818752536e+00 -6.248481356316398561e+00 -4.587638330928853314e+00 -3.768804856583114926e+00 -1.004918740230540397e+00 -1.148956107565858753e+00 -4.003951007812839080e+00 -3.443503329159355975e+00 -3.422119269605127467e+00 -3.175653974501746912e+00 -1.260945352274932985e+00 -1.117122814973371181e+00 -3.519723857241508491e-01 -1.355506185013489295e+00 9.614930438712779859e-01 3.609269302699018578e-01 2.655992910847573274e+00 6.492676745370747904e-01 1.905311167226017455e+00 2.041954323780604152e+00 1.246752022382207281e+00 1.122146917724689219e+00 1.274457921868556998e+00 6.471549542050789583e-01 -1.202013306793362490e+00 -2.219786401802970932e+00 -2.026737233621477507e+00 -2.352402972416325788e+00 -4.542703512297357804e+00 -5.214820594789700614e+00 -4.126931891314478129e+00 -3.701564672152082291e+00 -3.351526605176498474e+00 -3.470590016888619012e+00 -3.175209918924682295e+00 -2.041726752146600266e+00 -1.047766597868108107e+00 -1.790475126726967847e+00 -1.252786524286696457e+00 -1.971157451161000551e-01 4.764060151270947674e-02 -7.184129295966559248e-01 1.405791984958789376e-01 1.031615502817375685e+00 6.389798626932892134e-01 1.527912527835404655e+00 1.390980491698882160e+00 2.145331084171194558e+00 4.052952612046004099e-01 1.137385785901147139e+00 1.919627144081130776e+00 1.625574949523716839e+00 1.781165568312721714e-01 4.164200074351202541e-01 -1.442466637203367652e+00 -1.355499473913748920e+00 -3.214263349831926408e+00 -3.410234516389198056e+00 -4.658380133169599979e+00 -4.534613303983683785e+00 -4.441296711153377430e+00 -3.056867956841137879e+00 -3.158605970376950012e+00 -1.941017316190956521e+00 -1.084615555690146449e+00 -1.092014022214208957e+00 -6.329128469508392696e-01 6.123827849634205789e-01 1.029513232644222454e+00 -8.934591961037537944e-01 4.589188028829505744e-02 1.198796749177169607e+00 1.889506945483808709e+00 1.719651246178080628e+00 1.209428476767534510e+00 2.240637921239131192e+00 1.613849683871681817e+00 1.455114965948621331e+00 8.369444467652905617e-01 2.310464929503896148e+00 1.033915198027269167e+00 7.925565884789684823e-01 4.537460738734462873e-01 -6.455203368586027723e-01 -2.426070361694284472e+00 -2.996577733816076172e+00 -4.125249956137694518e+00 -3.916280603034248742e+00 -5.613723250338168214e+00 -3.931923006420360966e+00 -1.803519749107696413e+00 -4.010523416398913965e-01 2.038207302658882614e-01 1.547787977305406182e+00 4.045653889362271216e-01 9.163023331369058999e-01 -3.378727668903009906e-01 7.238745923297895679e-01 7.060464940710489135e-01 1.294160255657241132e+00 5.346821458547817985e-01 1.312080038578824048e+00 1.474378533050552553e+00 1.254877633209096954e+00 4.807715384845502871e-01 2.158665645961796553e+00 1.771171230679006836e+00 7.587849340722285785e-01 1.824280551474613876e+00 1.192517023222101180e+00 1.615716200353944032e+00 -4.859520895378834360e-01 -1.123304002141802371e+00 -1.252109605070085729e+00 -1.751812713281528433e+00 -2.105362274787483834e+00 -2.433703537701179087e+00 -3.124445985724974229e+00 -1.933815868594996212e+00 -1.021795162770878715e-02 7.671351650804673072e-01 4.432463057272005846e-01 1.796865234662208932e+00 8.690962955637058229e-01 7.750482356127053052e-01 1.391117360065168285e+00 1.998313904693186593e+00 2.139091040023376689e+00 6.037039341369885292e-01 8.434248156770628446e-01 1.128751203703601158e+00 1.136110602977721706e+00 2.203377250721541447e+00 1.623170905140008502e+00 9.254728183895207794e-01 1.965290958194449988e+00 2.072229912207421254e+00 2.684201467417404618e+00 1.020097632480380545e+00 6.618689617358317623e-01 -6.679187831915582851e-01 -2.820302489660294828e-02 -1.405450310729367658e+00 -1.194884405602634647e+00 -2.364183436739278665e+00 -2.252617088985283900e+00 -1.970523904129760417e+00 -9.562817050185067336e-01 6.816448972116637695e-01 7.495227868529075188e-01 1.354211203641322081e+00 2.890213208694181635e+00 1.599749641053510141e+00 2.101231069319371869e+00 2.217549343191447697e+00 2.122113157491757107e+00 2.027119185500206644e+00 4.547070511275378979e-01 2.159908543242509804e+00 3.799436349094344467e-01 2.038420659147002656e+00 1.506613856379781291e+00 1.726749561981911762e+00 1.441165984019168622e+00 2.151002573765727011e+00 2.364878021934869068e+00 9.203558716042662402e-01 2.119981946807266038e+00 1.071848916941370300e+00 4.879757315002258289e-01 -6.420565184049965846e-03 -2.932809609836380393e-01 6.273544447468289986e-01 1.451564815261827124e-01 -4.138644869168379703e-01 6.951649107365361902e-01 4.979037570177530583e-03 1.611942263062722924e+00 1.039589508419993980e+00 2.720172235414189732e+00 1.407240001956568287e+00 1.223052494318142669e+00 9.783000960021835946e-01 2.026652995328597218e+00 9.598756658530777086e-01 7.138495112455215397e-01 8.115876048831208722e-01 1.479292662052737795e+00 6.411102498826845020e-01 7.908219602922085256e-01 8.158880652831684843e-01 6.230967705628799314e-01 1.196009033074052930e+00 2.330537671732707761e+00 1.852749062217294185e+00 2.236245188744093504e+00 1.901407272136569127e+00 2.334413250487914926e+00 7.150441052189010493e-01 7.577116972708251019e-01 1.181268618523438452e+00 2.639554033385436593e+00 2.124267002744219202e+00 2.242515286467619884e+00 9.131633530155689460e-01 1.311002638360188710e+00 1.493793541696332827e+00 1.753309130461055521e+00 1.790373756708049990e+00 1.002698638587580238e+00 9.529141717718084825e-01 6.222174524202409573e-01 5.246347165047741123e-01 8.479338100903900388e-01 2.087769358623261962e+00 7.322201436982761491e-01 1.952469530119724128e+00 3.445350382975201353e-01 2.013925337077892674e+00 1.273864862458442326e+00 2.027774726161120089e+00 1.924472617767423621e+00 1.374127392991466357e+00 6.535443717515854178e-01 1.887194929518115627e+00 1.766367771998295533e+00 1.239868317452212487e+00 5.963892149073379834e-01 7.018053922926256183e-01 1.433434856756304665e+00 4.193015238476534567e-01 1.849816846111641988e+00 1.570886577137820206e+00 2.027252555588040739e+00 1.612752817787425075e+00 1.379969814705350961e+00 8.324339427228489852e-01 1.633113664413104571e+00 1.558755664660860019e+00 1.845312385728288485e+00 2.102166251822814136e+00 8.150846113913662316e-01 7.151160750531823096e-01
1.597339777777785574e+00 1.357145959874219265e+00 7.697718572989229457e-01 4.411881601571142619e-01 7.598670003459078170e-01 6.140997834970070013e-01 1.293501300644027019e+00 7.245023683114266699e-01 9.416493753509240783e-01 1.435046202508788671e+00 5.103184835750136372e-01 5.810959134230968548e-01 1.515832512300011370e+00 -8.021100636845147555e-03 1.842834328275334832e-01 2.340113912151992603e-01 2.836493385987091109e-01 2.231643209703649544e-01 1.353955548762145522e+00 9.487737740040536050e-01 1.342769260034577528e+00 1.003798802942817980e+00 -2.462494661765107506e-01 -1.907355830900069049e-01 1.270547832546702338e+00 2.980835513323164543e-01 9.657208178297488343e-02 3.443997764456903088e-01 -2.003357848440604772e-01 4.898750684505319072e-03 1.480716378522918042e+00 1.118083821665591115e-01 1.471491870977062355e+00 2.203498376541726811e-01 1.089850256669205042e-01 4.159513464865447485e-01 8.435887167105197149e-01 3.240976441242262585e-01 1.173550651361229047e+00 5.555353719524782630e-01 -2.407008872152608114e-01 -9.558823860533572497e-03 -1.651624286087030047e-01 1.697395859991501332e+00 -1.997053946927290213e-01 7.884645540941691566e-01 5.339288301666549330e-01 1.006690049983418600e+00 4.480791081293791223e-01 1.463132793431283218e+00 1.039441694145085027e+00 7.221837477200794275e-01 1.539757747990014636e+00 1.638250380575368315e+00 5.033359040769750381e-01 3.407082079083816328e-01 1.337530407704149216e+00 5.142686611782854023e-01 -3.243692623382417040e-01 1.645059209670950207e+00 3.637991043359923848e-01 5.723021919831412507e-01 1.489958931557770372e+00 -1.860963208131179714e-01 1.458642768090847808e+00 1.090920818540209725e+00 9.245197801139993787e-01 1.441721138738730312e+00 1.280469367115926183e+00 1.036663420594873486e+00 8.767895710054631753e-01 2.078615772473787260e+00 1.943182371652072415e+00 1.900403381237375733e+00 2.213404794812996013e+00 4.733707612331574111e-01 1.220719928947008537e+00 7.863296742290809549e-01 -2.609461607441276865e-01 1.780343528573275769e-01 7.116299887862712059e-02 1.290574293073469381e+00 2.158475832662556659e-01 1.210756236536248753e+00 6.135260383726699462e-01 1.013335557954109234e-01 1.233599977587867658e+00 2.769764418464452649e-01 8.139682993214003570e-02 8.943085046904604152e-01 7.539916956875777343e-01 1.452539113125022707e+00 5.298231520675331652e-01 3.173104870259596533e-01 -1.322784317420125921e-01 5.600249349129495791e-01 -1.322891977513618311e-01 -9.752566782036929671e-02 1.746551460828431157e+00 8.048623183001821779e-01 9.232430304082980266e-01 2.311877376381275440e+00 2.792232945428606339e+00 8.596808363067440784e-01 1.219040497607002838e+00 1.792503033420887348e+00 2.973280601514983745e-01 1.054334474697658841e+00 2.000127681639286836e-01 -1.393492489582630334e-02 1.038232210109052644e+00 1.129706685486146500e-01 6.627913277810185133e-02 1.088088585708326228e+00 1.062020452967628703e+00 4.469263634009923436e-01 8.123708238675486637e-01 -1.088020619872722972e-01 -2.135088063016949977e-01 1.413117612200766871e-01 -5.713045088360473311e-01 -8.111151305495029051e-01 -4.762663324744931259e-01 1.009377157422123306e+00 1.290052378315638570e+00 1.985409224929642336e-01 2.015684401024892658e+00 2.835500764913783556e+00 1.810936536580292744e+00 1.356884264181030142e+00 2.619816724902257921e+00 1.867589495194541538e+00 9.974794077714389529e-01 1.584194634671197699e+00 1.692974985879343919e+00 1.907170094917639336e+00 1.789023564101281716e+00 3.924295564679390891e-01 1.269253919417528270e-02 2.501518183941347506e-01 4.220388986941306930e-01 -2.888256903029781109e-01 2.428330337206954792e-01 1.415073036335547485e+00 1.410611169551785560e+00 4.914517336036525741e-01 1.229128260930085481e-01 8.651107469843967168e-01 3.420930808312010463e-01 -4.260108710872570481e-01 6.281647461065408278e-01 1.784701913705617760e-01 -1.495169200515406860e-01 -1.806344603563908580e+00 -9.859088839330267806e-01 -8.944091297619968239e-01 4.661439736878383311e-01 -8.778429075518482394e-01 -5.922617246089607601e-01 -2.311329740614203043e-01 2.295113488810242686e+00 2.403407904653536153e+00 1.837729057585147041e+00 1.598915823455337115e+00 1.310274098031559697e+00 7.843905166476085045e-01 1.430085118213231699e+00 7.931357447439097985e-01 -9.740339140623982539e-02 -3.454631080684556627e-02 7.043722782472295885e-01 1.444876918392711262e+00 -3.415501504030366009e-01 8.383710133784830210e-02 4.940264535389834455e-01 3.904345221709691893e-01 4.899634642989639938e-02 -5.885358068749919624e-01 7.170099924271026159e-01 2.275507984932481631e-01 -4.478506599035793068e-01 -2.423358075961020486e+00 -1.316592334242280060e+00 -1.399584425064347881e+00 -1.288332627791243024e+00 -1.033546454286901284e+00 -2.456907149970848914e-01 -1.107211792194269462e+00 1.225218255838729675e+00 -3.201011269912740764e-01 1.201635081744536038e+00 1.850103673587581321e+00 2.241066527326143643e+00 1.290874359032473384e+00 1.233301476166261734e+00 1.023649950176926282e+00 6.096586912422230498e-01 1.233547375818262903e+00 -3.342408424755438645e-01 6.979365196602352883e-01 4.734084383418298847e-01 -3.034583764228855340e-01 -7.662926652213194467e-01 2.407477863073223812e-01 -2.773289691851387739e-01 -3.870928266958060249e-01 -5.185351165213646363e-01 -1.737859874454543707e+00 -6.020780255817526072e-01 -2.425425915168024638e+00 -7.587942951708395167e-01 -9.416585498800509324e-01 -2.238010470963912812e+00 -2.363372678576204589e+00 -1.929930340923780685e+00 -6.895321997043465934e-02 -5.447438167291657890e-02 8.216091322446668066e-01 -2.309882149996707601e-01 1.787527604195835007e+00 3.151238029525921469e+00 2.639328836411815704e+00 2.039087369713182607e+00 -1.036203897493707948e-01 1.122714664083943381e+00 5.382086620072606964e-01 -2.952477884761984736e-02 3.219011646240179103e-01 -1.064286238232853510e+00 8.935823942175679102e-01 -8.627570076856961867e-01 -2.639940296034066769e-01 -1.456373571222009389e+00 -1.704251882092693515e+00 -1.770045655800857487e+00 -1.285665151026795794e+00 5.216050165292401841e-01 -1.781652236763771047e+00 -1.299359666874955188e+00 -1.634032927346289243e+00 -2.065867352458593764e+00 -1.540142131476859744e+00 -1.223761854926292525e+00 -9.261120354150520484e-01 7.204334475892670842e-01 1.219014811114309982e+00 9.276118910110434657e-01 1.327601496594220887e+00 4.185843591670763253e+00 4.069628010587661215e+00 1.441553998335725728e+00 7.529471668704756926e-01 5.154816909680464132e-01 1.275415587293797504e-01 2.414471379569474718e-01 -1.537973669978611457e-01 4.657483531637363061e-01 1.618940131139144090e-01 4.775931276012652660e-01 -8.686454044477370795e-02 -7.870933993118837124e-01 -1.671531382566848078e+00 -2.094476484818046380e+00 1.323096588090516834e-01 -9.891591220735391765e-01 -9.396249873677351427e-01 -1.033312796354588059e+00 -2.681857547267625819e+00 -2.711451765892783250e+00 -3.136886531957294721e+00 -3.311599603401713665e+00 -2.967937678895232523e+00 -2.760472516462941228e-01 -1.770519635422036775e-02 -2.248093913412851363e-01 3.798259437858845788e-01 4.063589508345743617e+00 4.462289755656111190e+00 4.820078898421635838e-01 1.390171269668281528e+00 6.053567926908619973e-02 1.626067860223775918e+00 1.334608097468837684e+00 -2.446274907909821647e-02 1.316217086382341028e+00 -7.563300449785191892e-01 -5.643674533245596203e-01 -2.857376033906066093e-01 -4.818065722554337738e-01 -1.332446922559735292e+00 -7.557593375211898445e-01 7.065463051973179809e-01 -5.009036855970461222e-01 1.487078268154743643e+00 6.091713235040952662e-02 -1.503826059090414224e+00 -3.060667279228065585e+00 -4.515931608341510639e+00 -4.782534976271338500e+00 -3.973783657662797175e+00 -3.062158690640807368e+00 -2.219485669899091462e+00 -1.685859375264023852e+00 5.825577698727024689e-01 1.606073908176535614e+00 3.156112357494926357e+00 2.425106958600955931e+00 6.933160350564817609e-01 4.256577678378886676e-01 -6.889154083880158486e-02 1.370753157857056426e+00 7.384863197575738392e-01 4.528819004890518585e-01 -6.771659653765925713e-01 6.738466534519363393e-02 -5.182323945015696598e-01 -6.189001408784290392e-01 -5.108580962440837370e-01 5.292141641209087144e-01 8.191196661348137953e-01 1.594172411239125786e+00 2.724282791441039020e+00 3.092566378224339552e+00 -2.506589103885352166e-01 -1.669502445427953896e+00 -2.101113096848415740e+00 -3.129723353000801289e+00 -3.616077291333572585e+00 -3.723409118686864971e+00 -4.292522345755115154e+00 -2.832776589033082715e+00 -2.799226158647699858e+00 2.977753487549593681e-01 2.313129895169653061e+00 3.026310944248702395e-01 1.251734069119693427e+00 2.308811718328260265e-01 2.599760250354871127e-01 3.755926397068042322e-01 7.718585515183071788e-01 9.810952098975721514e-01 7.611130951470658212e-01 1.395283234253057003e+00 5.241512733149014114e-01 1.024299966320064481e+00 2.907715511871157288e-01 1.133145446322911115e-01 -5.202798275088080793e-01 -1.323010708880312247e-01 1.722865188825214888e+00 4.587174782893952418e+00 1.755157492973230093e+00 -1.785509215206325218e+00 -2.490851046462327023e+00 -1.818007400154719955e+00 -2.017209129335780116e+00 -3.862379470621918554e+00 -4.090844662962672018e+00 -4.038091033369057392e+00 -5.010513201801379601e+00 -2.363023811199533863e+00 6.069959239724009858e-01 1.147795604878410813e+00 2.762125764672853645e-01 2.377585494419315326e-01 -1.454277007524117926e-01 1.141367910184493795e+00 6.267267942072871079e-02 -9.736199094912312280e-02 -3.307919105395976112e-01 -6.468269160405434870e-02 -1.252234956778458357e-02 7.570676162944586229e-01 -1.075862834556437386e+00 -3.514430620296308483e+00 -3.613484446789539728e+00 -7.940064111456580642e-01 5.643058218246740365e-01 2.131941733345406043e+00 -1.073056067539645442e+00 -1.214703395033091216e+00 -2.224005778400865552e+00 -1.929761245536526726e+00 -1.249958480482457723e+00 -1.745217036751772532e+00 -2.324096176153519711e+00 -3.819551284497684662e+00 -3.019409931758826104e+00 -2.836605342828550924e+00 -9.413565200772189279e-01 -2.430483001757009417e-02 3.883099474678128882e-01 -3.040719546545114227e-01 8.123230840385748941e-01 1.423716766576182513e+00 1.868173487102505470e-01 8.798841421268775997e-01 -2.624491701986652603e-01 -1.599174257834514279e+00 -1.362908400724069491e+00 -1.600758297703845479e+00 -2.514140656621592029e+00 -3.851515199682632673e+00 -5.212425850817719031e+00 -2.507645611854889101e+00 2.711249219935103483e-01 7.488095008718820278e-01 1.685264405223426409e-01 -1.583451052058030717e+00 -1.903184132510223447e+00 -1.297831349389803490e+00 -2.393543515972609281e+00 -1.226310407651120871e+00 -1.114872219509938089e+00 -5.088621098365484485e-01 -1.819513224615354474e+00 -1.111584429524118178e+00 5.907045685011048652e-01 1.217344106860363540e-01 -1.384966055786282790e-01 1.062425750986204065e+00 -1.322324253321480181e-01 3.330252674318411321e-01 1.468465854341300530e-02 1.015627322859466997e-01 -2.493332578457547744e+00 -2.150814040002616778e+00 -4.098610361775348210e+00 -3.513191938987083596e+00 -3.824155218642663723e+00 -4.232696359667471597e+00 -3.095929687516951301e+00 -1.840110081382545948e+00 -7.430557021203987311e-02 -6.663703907843558927e-01 -1.448061341805517044e+00 -3.281295168719564614e+00 -2.206764785860450662e+00 -2.396988516415996529e-01 -1.886107026277727416e-01 -9.316801350456915820e-01 3.108883537254227281e-01 4.653908165453721213e-01 5.892581941290371272e-01 -3.656670552123543749e-01 -9.395046824846334799e-01 -3.641172328811534964e-01 1.292891761919887195e+00 3.952197174668926893e-02 7.346694695460072033e-01 7.917215382960075543e-01 9.873261807405609991e-01 6.042022058818269370e-01 -1.432269663139159377e+00 -3.887144292387838096e+00 -4.488034455763733277e+00 -4.346594901386310106e+00 -4.533800824846916377e+00 -4.732284433870075802e+00 -3.260057971860044645e+00 -3.146935731572401362e+00 -1.935263158003552197e+00 -2.518440915452488937e+00 -3.397620051122503870e+00 -3.931612011828657494e+00 -2.039861689386770038e+00 -1.712294484621367907e+00 1.400641552834643588e-01 -7.981012301273178455e-02 -1.036825641911075957e+00 1.515307292068143408e+00 4.390974315922768073e-02 -7.608120138018631406e-01 -1.231793734839043974e+00 3.131295814564415414e-01 1.198958042789021849e+00 5.321894756491687417e-01 -1.097490883159347452e-01 5.255041022304448584e-01 1.323332117153284804e+00 8.830977302053981681e-01 -1.682021766510148897e+00 -2.278012639965784736e+00 -3.852679445857182472e+00 -4.304652409488723741e+00 -5.344965894992480315e+00 -6.813783212063941441e+00 -5.986175378036196371e+00 -4.629981166176990293e+00 -4.084874042935184413e+00 -4.577391945484226454e+00 -2.924059069575040137e+00 -1.842420561335729623e+00 -1.180196449268684278e+00 -7.010489770331818082e-01 -6.022663299739009490e-01 2.384975891334108755e-01 -4.405462022775483710e-01 6.820526650775103894e-01 1.167677623700818401e+00 -6.882592214279477094e-01 -3.528116001254434364e-01 5.046883015282870311e-01 8.746529998762551106e-01 5.119888002412636974e-01 9.763840461384625247e-01 1.815008336938060296e+00 2.028405929950828135e+00 7.879459693909464102e-01 -7.120642204116229834e-01 -8.393553044033713606e-01 -2.237046013824931734e+00 -2.937333438805051156e+00 -4.608054722154681038e+00 -4.905255675604963450e+00 -5.294311817170063605e+00 -6.082230229500850349e+00 -5.795665460146325998e+00 -3.985727096690933280e+00 -3.412391180448265615e+00 -1.129568750473132432e+00 -4.581613467569209397e-01 1.302673729302282313e+00 -1.286010040530194132e-01 1.399054291100670699e+00 1.626332769389187582e+00 7.506033320210629967e-01 6.303344139871213114e-01 -1.015313290355587705e+00 -5.929459778237629042e-01 -3.132437927697776514e-01 7.870168519152156428e-01 9.610447720882531186e-01 -2.947236977944374114e-01 6.096230025402175068e-01 1.578975371559916629e+00 1.096332446415549056e+00 7.376106348586235484e-01 1.679316317375195489e+00 1.303987564025482493e-01 3.913013272044937318e-01 -1.042750788185220268e+00 -2.635562840690868214e+00 -2.764904544164467737e+00 -3.554341720028329377e+00 -2.449023783492129347e+00 -2.248913907927798661e+00 -1.496305993818296987e+00 1.329095624765205264e+00 6.456206953550885919e-01 1.117623726486589586e+00 3.030252167436430777e-01 7.745669295764638917e-01 1.233281554558463139e-01 -1.527390068803698431e-01 4.760903212357942005e-01 -1.435390364513307038e+00 6.250569350839519853e-03 3.255101391696548774e-01 1.082454529035127511e+00 3.676114914811748902e-01 -2.163365531644844408e-01 -1.927141829788905358e-01 1.996943749445061922e+00 6.612936162547777830e-01 9.928581215490063228e-01 2.098211286456676650e+00 2.066754296808803293e+00 2.518617542791934394e+00 3.352152288443369099e-01 8.174053120487357882e-01 -2.203426783895613417e-01 -1.182168048615370504e+00 6.847618150090724054e-01 3.571568663292870038e-01 -7.390716890431964226e-01 6.673719712325045794e-01 1.485142464438223620e+00 8.213408115842697477e-01 1.220539174361499057e+00 4.140298290968476014e-01 -7.085966738127539299e-01 6.401399194860089015e-01 -4.993892648710768767e-01 -1.657875123098662584e+00 2.956496630196917552e-01 1.100262815666542826e+00 1.223608713195513786e+00 2.848346031514826793e-01 5.050029478937317212e-02 9.168382617054112727e-01 4.236919914927123609e-01 2.178040027226106456e+00 1.429845411492038476e+00 2.362155009852715981e+00 1.979010850379899766e+00 2.006774953401546213e+00 1.088495654469498586e+00 -4.326841480108277738e-01 -1.056406633987005739e+00 7.102370584016862720e-01 4.556365925619937918e-01 1.523479291038027261e+00 5.091331475135105755e-01 -6.671744462974036338e-01 -2.412457810064660424e-01 -4.625624127102322958e-01 -3.277803460115978895e-01 1.636900761884681810e+00 -3.498264618942475285e-02 -6.630031488050559529e-01 -1.246570002424828516e+00 4.154482797453863951e-01 3.056591988201728949e-01 -1.676229049582705077e-01 1.344898957295981745e+00 -2.196600309653392868e-01 6.423217575835955540e-01 9.759786462339886670e-01 -6.409056947846242247e-02 1.966816387155403190e+00 2.120245806556648294e+00 8.111155686117448305e-01 5.565442423016855322e-01 3.966631592515866833e-01 5.910292950234224962e-01 5.670109891978979411e-01 -4.031589228502364119e-01 -3.679496766132954733e-01 -8.499768370285867292e-01 2.824098417020557972e-01 1.026801986640325792e-01 -6.938762866925157757e-01 -4.334103292507477390e-01 -1.228858288570206514e-01 -3.839432836933250326e-01 -5.743462937084674591e-01 -7.620794744825609701e-01 -3.130980505605096553e-01 -4.894827104835378639e-01 -6.402688284699182830e-01 4.000444676372200137e-01 -1.185169437131577824e-01 1.287512724506836292e+00 -2.141459762832624569e-01 1.269047891284405427e+00 1.713015657403644143e+00 6.890770889997701598e-01 2.210862840202530766e+00 2.058858132868019108e+00 1.401539904081634980e+00 6.848603267741015799e-01 1.378898679303032671e+00 9.899279649231461642e-01 1.181359933347353008e+00 9.906384364030865752e-01 4.555102420088711357e-01 7.655743840673457923e-01 1.692386566554576199e-01 -1.028224896492067275e+00 3.979622583232059752e-01 -8.591894082146699085e-02 -1.262337588276819522e+00 -7.409149293051171536e-01 -1.015101926205976834e+00 1.142278785510448258e-01 -2.728706227841163345e-01 6.043950984662171955e-01 1.440126257215003092e+00 7.256176387558074259e-01 4.388372615894321482e-01 1.138923738251589324e+00 1.733901691969270964e-01 1.364215165523119389e-01 1.519561467333389926e+00 1.406636756488129691e+00 6.837643191311425506e-01 1.120218315666340753e-01 1.378919675119200328e+00 2.271516009371457034e+00 8.619803302317284865e-01 1.692195731720062213e+00 9.493126696490720162e-01 4.130473591046578408e-01 -1.062792504942737526e-01 8.080994748543979256e-01 -7.821299595395965198e-01 -1.886528082630939129e-01 -1.576343106936210159e+00 6.044155387064923390e-01 -2.070374715852824066e-01 5.778221550133748607e-01 -4.622108251652731203e-01 7.031781762761214472e-01 -1.731760768203400580e-01 1.232224042344493009e+00 1.463966167118596395e+00 -2.426159121965703047e-01 1.626382374808672981e+00 5.873252612132742190e-01 1.503699139823710507e+00 1.425371220832198471e+00 2.503132791445427663e-01 9.293208809491972922e-01 -1.692329094802354494e-01 1.533719795599860714e+00 -1.660801953914296525e-01 3.311293657277383229e-01 2.215615236751341754e+00 1.025372571893439666e+00 2.580662168980958349e+00 1.801199993125311094e+00 3.026191160114612089e+00 1.378937057016296874e+00 1.932871401657128674e+00 1.400232302800480388e+00 1.053187580060273243e+00 1.796145171183870237e-01 3.665252772412853632e-01 1.165534673470248084e+00 9.674394789796000316e-01 8.399358726610360870e-01 1.344813764132423151e+00 4.665634733567860515e-01 7.829810896703843781e-01 -2.797454542177677528e-01 6.057931269247975870e-01 8.030832602279551757e-01 5.612648415267280644e-01 1.366979172109385576e+00 9.110344938571435236e-01 2.926512903257278975e-01 1.647448081632038264e+00 1.200655095095273683e+00 1.145241495271248855e+00 1.320530691911833365e+00 9.158456033212104552e-01 1.711489613334212789e+00 1.433711949135444419e+00 1.185375316276860103e+00 3.797710216480811862e-01 1.065334102594992505e+00 -3.992512505358166153e-01 -2.610934665419173406e-01 1.199863437353586137e+00 -3.903985401612558581e-01 1.088952034187496531e+00 8.222029530628311988e-01 -4.390999223659534240e-02 1.078118018837730618e+00 1.202223202483496900e+00 1.896274480267790274e-01 1.582119511585895033e+00 2.063057138112411038e-01 4.382558255598806296e-01 1.366139354892544233e+00 7.099231046362193265e-01 1.620572027030463269e-01 1.989430531756015280e-02 3.190827901647590448e-01 9.522536495896685160e-01 5.843345676454719806e-01 1.366043085171570581e+00 6.311585599862981066e-01 9.221819921240453910e-01 1.615511450894677292e+00 6.346334732059862871e-01 2.031328681932429159e-01 1.586696432006864388e+00 5.115799400393357121e-01 2.418708682566557411e-01 -8.801861607384101061e-02 1.086900951190414299e-01 -4.089812415565635684e-01 8.143170135705064538e-01 2.475104760878557297e-01 6.199020996534314598e-01 9.686755538389029141e-01 8.450791693884343037e-01 1.324892610480030264e+00 8.114074781387543567e-01 1.142891530628152186e+00 1.436964695912455348e+00 1.538957355330200727e+00
1.245301279790482551e+00 1.899388146398708566e+00 7.517442832632165173e-01 3.130742140756238023e-01 7.563311609947266367e-01 3.041892509738876593e-01 6.522480855599940286e-01 7.990760047259345411e-01 -8.384130933243152950e-02 1.122164707588835020e+00 2.748303770461844597e-01 1.584389346505681528e+00 3.610266013627910775e-02 1.408926313021561016e+00 5.598422099655647743e-01 6.534999097163042281e-01 1.378792180850639815e+00 8.199349854300980178e-01 8.811341734898318068e-01 4.091336443782597754e-01 7.592226030752206034e-01 4.643041162665154098e-01 8.994971233843359615e-01 1.519535363008934103e+00 2.584775407393841706e-01 1.060378488380115281e+00 1.599357194572674112e+00 1.186954750932234903e+00 9.991993368370675199e-01 1.565550335108160551e+00 1.653635847004970350e+00 1.848791342236758561e+00 1.842057045610778987e+00 7.041308305991794692e-01 7.389306796584507731e-02 1.164498964585268803e+00 4.068946750256813849e-01 3.216780806749092725e-01 1.641030199404873047e+00 1.542482791473192894e+00 1.249021870104027654e+00 1.616334096383853502e+00 6.185928484653943071e-01 -1.768129689554094053e-01 1.424941298614265550e+00 1.501811981961486131e+00 5.121906066929092782e-01 3.191769562202167454e-01 2.130760403923903298e-02 1.578469858504565559e+00 2.345182857934431653e-01 9.763051141085211659e-01 6.361607209741172442e-01 1.209466606422094470e+00 1.039871508403042766e+00 1.553556531333631474e+00 1.278553601493941594e+00 1.073115409802877673e+00 4.581698827821897857e-01 1.592169538473579893e+00 1.463319041973827561e+00 8.869653010138246474e-01 3.244505824892401358e-01 -3.210358430126140916e-02 1.345212455890335113e+00 -2.756526945984243970e-01 -7.405815306454779923e-02 1.106016090835641175e-01 -1.037345360353423729e+00 -1.214292292442548549e+00 6.522085688021884708e-01 -3.684764118306455560e-01 8.206105876710256819e-01 -8.779185990997270816e-02 8.208739970323267743e-01 2.113933560135283218e-01 1.569871820160861242e+00 9.758090251246389624e-01 1.453642253085935199e+00 1.763737423388585801e-01 5.086048155672304727e-01 2.601608742639886507e-01 8.637879652214736081e-01 1.969841262278574090e-01 1.271391536182168991e-01 1.168642741936247953e+00 5.907053150405480180e-01 1.250966696434127057e+00 9.216403786774933771e-01 1.500971430182836963e+00 9.470745910925210120e-02 -3.319599905812799512e-01 -4.052697809461257017e-01 -1.490526152373400457e-04 -6.439066731219099671e-01 -1.088087578238946751e+00 -4.598346356968533999e-01 -3.931228054066047695e-01 -1.577957927304179941e+00 -1.355703221956896964e+00 -4.047286833424160735e-01 -1.796008785592696777e-01 6.186021285047615254e-02 -3.616253742029607587e-01 -4.270102979340385518e-01 -4.011884346245999100e-01 9.969419882591851190e-01 -3.355745080735206276e-02 1.297100962308202154e+00 1.105451118555597079e+00 4.656152988592157649e-01 2.661197113115605986e-02 1.557143322823101583e-01 1.404660904560482537e+00 1.737217618656363913e-02 9.705507347775357285e-01 6.610900373623315174e-01 1.382086926357162515e-01 1.062530393878507340e+00 1.080554060854940213e+00 1.467647848459835425e-01 5.243326701151623803e-01 -8.753313706043902576e-01 -8.857422756778017270e-01 -2.084416854314808276e+00 -1.854048721648222653e+00 -2.547097267928394970e+00 -1.318886980770372253e+00 -9.968255627142539321e-01 -1.694504516954099094e+00 -8.862675515235948209e-01 2.221453824041107750e-01 -6.337870568538530591e-01 7.165772497238062089e-01 1.379930825515670145e+00 2.064065613807004151e+00 1.103376509537094208e+00 -9.517923147271123430e-02 2.211218684249352251e-01 3.285145778980650966e-01 1.229777406695403252e+00 -2.211855164516548719e-02 1.410261264311212237e+00 2.781021899502467143e-01 1.527423623901736915e+00 -4.353861435242704636e-01 -4.402934715086670447e-02 1.249196174833080430e+00 3.402763513936110096e-01 1.007418219790825686e+00 3.569437173627157747e-03 -5.738646559219282572e-01 -1.585776808112105751e+00 -1.382927331572372687e+00 -8.357099332212019061e-01 -1.692267839900400528e+00 -1.344581983424357752e+00 -6.255604462645090180e-01 -1.682796567924909281e+00 -4.647713894567896409e-01 3.952721815635465985e-01 9.292100966735568068e-01 1.009982973021644970e+00 2.027284564223446939e+00 1.942542529879020208e+00 8.159156845447538275e-01 -4.613886753587505274e-02 2.418656133047377421e-01 1.765791395070266168e+00 1.221194694263696645e+00 5.297372584285328090e-01 1.481710809283943275e+00 -3.606196541425550905e-01 -3.335601801579887726e-01 7.421097052958495199e-01 3.299680754704709118e-01 2.408565019970305421e-01 -7.006027579460035737e-01 -1.016925858301334307e+00 -5.948195242034149954e-01 -1.869117671655812440e+00 -3.434079698453429419e+00 -3.638807978955492128e+00 -2.081748994081618953e+00 -3.288275816922437311e+00 -1.706493638558445269e+00 -1.822501302148050284e+00 -7.833417401836890726e-01 2.379473041040877090e-01 1.198494404577707506e+00 2.317505877578910134e+00 2.824357141005107596e+00 2.384022269619069379e-01 1.516520423502276671e+00 2.439298983706690571e-01 1.705389835016018762e-01 1.369466704282562286e-01 6.124990744790436148e-01 2.323283078847140082e-01 9.063199520755496064e-01 2.608546532298514076e-01 3.000807474360331004e-02 5.679882614862111767e-01 1.663036022479932319e-01 4.673904930261303381e-01 -9.715471358461560403e-01 -1.276780622112404506e+00 -9.645136372854554718e-01 -2.379230682700057109e+00 -2.728218838606382590e+00 -2.841403728544697138e+00 -3.134580670866511820e+00 -2.622152929978368796e+00 -6.385393442532235619e-01 1.722296010280721379e-01 2.968027041270517863e-01 7.845670100302468697e-01 8.301643451900132531e-01 2.453672772159530169e+00 9.860338249110498499e-01 1.620173465157569215e+00 9.778451889114996298e-01 1.937555217914711456e-02 1.875824445845395649e+00 8.847741896972735054e-01 1.346554409249030582e-01 1.367629549588798676e+00 4.065841805605955317e-01 1.153284371853652512e+00 8.924812196238663953e-01 8.739312532373976206e-01 -1.337563173557462515e-01 -3.110656533679624913e-01 -3.754010316533394898e-01 -1.620402845432373784e+00 -1.170913221389141418e-01 -1.438438925504793797e+00 -3.449872415728004516e+00 -2.304407863501006570e+00 -2.663534899513521292e+00 -9.381746374329381633e-01 3.752819605569387984e-01 6.759626607967247347e-01 1.222203653990814542e+00 9.517457133428087745e-01 1.266901497926617104e+00 4.161274591773185816e-01 1.305849430035219250e+00 6.076579575434058050e-02 1.460889331243778066e+00 4.211658877493526520e-01 8.847377988979613361e-01 5.794275175533868463e-03 1.127633364382173431e+00 1.921334719094116350e+00 9.083971188460038260e-01 -5.811974888509956472e-01 1.201590642199497738e+00 7.826254665064295846e-02 -1.100594962734302351e+00 -5.616941405832432954e-01 -2.781915115794787452e-01 -3.587294420059073952e-01 -5.577279035829112441e-01 -2.988665474976385794e-01 -7.852575122411162845e-01 -1.346320804968075269e+00 -1.474714710151368458e+00 5.377295661945222793e-01 -1.819267521178963010e-01 1.399614941321391859e+00 6.620641249655514482e-01 -2.245993844084484270e-01 -7.317214931736915062e-01 -2.534111306089957827e-01 -1.533258876631244383e-01 7.309554896023160407e-03 1.611822289773710448e+00 4.018045451566588655e-01 9.026722122583024088e-01 1.531718828482179662e+00 5.466421367819458421e-01 1.186881038137231448e+00 1.368606158025267749e+00 7.190407795074547082e-01 8.044586520049454847e-01 -2.359215319372970632e-01 -1.450422427839856088e+00 -2.865898531707056773e-01 -3.338985768529626700e-03 2.122688915560201062e-01 -6.339330890368399807e-01 -1.781755868414788502e+00 -2.810924866481996354e+00 -4.279454362433871673e+00 -1.488109562789028617e+00 -1.466936722259890136e+00 1.465746874386013587e-01 -1.009238338104817778e+00 -4.617150269609124891e-01 -7.605639038484437453e-01 -1.566687612567835286e-01 -7.068594238961659615e-01 -9.595032432934753608e-01 8.575811292428396626e-02 1.082700834568512516e+00 1.981004249424786479e-01 7.469810285877084496e-03 1.636215598752585487e+00 3.348461724398086869e-01 7.782975314495678143e-01 1.238977186796577978e+00 3.120060001810414096e-01 -2.007332124472779311e-01 -2.295388820039339361e-01 -3.393647318995741125e-01 3.465187356795528251e-01 7.814104195101676531e-01 3.610712644504052854e-02 -5.631999724998966173e-01 -2.805380505377643274e+00 -5.499196793800057215e+00 -4.668540366983837231e+00 -2.406360785511618694e+00 -2.208989152650969512e+00 -2.164709039401668367e+00 -2.365489804226843962e+00 -9.328840491684335656e-02 -7.034869676535553396e-01 8.220732977925422347e-01 -1.470313276279424874e+00 -1.520477918074464974e+00 -6.221490971074910004e-01 3.756144760765713908e-01 1.415842749815008572e+00 1.599412762745462180e+00 8.500560329263248116e-01 1.355056869117933771e-01 5.611225636124247407e-01 5.538119778501138235e-01 8.976830218698226282e-01 3.644092004701144916e-01 2.978746460613417302e-01 8.145889732003533945e-01 1.004947949023629716e+00 -3.839173380040155070e-01 -1.696151710197336904e+00 -1.849552239693248001e+00 -4.125481828458601896e+00 -5.660907997266088287e+00 -5.871045065539412633e+00 -3.656299472260952754e+00 -2.799435534645966950e+00 -2.715189884397655629e+00 -2.039350477440493137e+00 -1.058004406986587265e+00 -1.168872075968742985e+00 5.306135873430107772e-03 -7.600628026152657091e-01 -9.161104734938375627e-01 -1.804826613993903983e-01 1.199184509099390228e+00 2.456593226271600386e-02 6.027521331429200879e-01 9.718516054719573694e-01 1.106070545029413710e+00 3.395956571251311229e-01 1.387723804943476580e+00 9.244324705242676909e-01 8.536300199602095962e-01 1.411929488598481219e+00 1.463778152683441247e+00 1.630300187683040747e+00 -6.884424988308193161e-01 4.227529481276525170e-01 -1.826622247357318374e+00 -5.128587996018629802e+00 -5.840399002847119547e+00 -4.356353623837786238e+00 -3.828152009345032081e+00 -4.417774124806694402e+00 -2.090375636222976397e+00 -4.922690653945471229e-01 -8.929395003255629071e-01 -6.431809243149125832e-01 6.906598165762040109e-02 8.006163067977659642e-01 6.000583540989192777e-01 -7.855508509374536930e-01 6.063801243319004719e-01 1.873154645756941739e-01 3.017226652782104002e-01 3.856620199136024385e-01 1.712522053613146911e+00 1.712866931179553909e+00 7.063663194607656681e-01 1.177703292124175460e+00 2.601698169252084636e+00 2.047056726633351253e+00 2.839866673171216327e+00 2.577126185296978012e+00 8.566500462878692268e-01 1.847887703190381758e-01 -3.517203734063647946e+00 -4.640818944141040348e+00 -4.879772690395822288e+00 -4.292988033908383905e+00 -3.973007177912557530e+00 -2.784697929207099687e+00 -3.892065460480187977e-01 3.774908985716863841e-01 3.617288199955646655e-01 4.403716019110366364e-01 6.472845223282667204e-01 5.499784692050152524e-01 6.275953937854317211e-01 4.632824943835736065e-01 1.483627787053170222e+00 1.178603376347752807e+00 1.342889458241519174e+00 4.643693595730060131e-01 1.492727422203809773e-01 1.346259033412026573e+00 -4.180773243723306942e-02 5.223441934642452100e-01 1.146251914403071837e+00 1.877895738203723797e+00 2.913882152537931702e+00 3.382248128225543660e+00 9.161267815575497853e-01 -7.944494666855003162e-01 -3.492017243359690326e+00 -3.221394187964333078e+00 -4.664762964383212029e+00 -4.629811027942537294e+00 -3.190103169351730994e+00 4.597544786274666839e-02 1.846907342932925244e+00 1.307232309987733876e+00 4.239151533732390953e-01 -7.278472110105874693e-01 3.743445385816078219e-01 3.671079244469488967e-01 1.480986057544377288e-01 -7.200765342298747207e-01 2.310535561553574146e-01 7.312585193431593300e-01 1.520912193984440330e+00 1.768343159244438079e+00 3.439842970487898000e-01 6.354660974270793794e-01 8.295586797868818030e-01 1.636648211367520034e+00 2.596105782893188607e+00 2.171882826682361323e+00 3.452810430407480258e+00 3.166488426354758356e+00 -1.115591579161075569e-01 -1.390571264940190677e+00 -2.324733650240982552e+00 -3.496670935663094504e+00 -3.027512385188539490e+00 -1.577171529754426205e+00 -3.441744190849042595e-01 -2.902247957610899487e-01 1.640307766465015860e+00 1.487848592763480138e+00 4.723269081661550794e-01 1.825136416918705096e-01 -9.601212809303999451e-01 -8.312725894849435360e-01 2.089233378632457117e-01 -4.569023361461791999e-01 1.979860912755071034e+00 1.943540918108826343e+00 4.844745041152196952e-01 1.796622517392111318e+00 1.720571731433554463e+00 9.792992832677390735e-01 -4.843856278094448853e-01 -4.619177209514260252e-01 2.217845506582830417e+00 2.027031596883013709e+00 1.550289182798531007e+00 1.713800498580341669e+00 9.176361685737982610e-01 8.654941104182662936e-01 -7.797489565647743870e-01 -1.451862212504969385e+00 -1.783899008831194122e+00 -3.993505161634025580e-01 3.232853754709877347e-01 7.244571901902191469e-01 1.173826318728568019e+00 7.399375680012830747e-01 -5.592583034234869244e-01 -7.541188406220326046e-01 3.947377394909226123e-01 -1.830470381967855831e+00 -7.826964059735856682e-02 2.114185542848597554e-01 2.065262929809687620e+00 1.620111948298727511e-01 2.489845305717216795e-01 8.042160534000500904e-01 5.776939683840215389e-01 1.622182314072502685e+00 -4.541615444648104405e-01 -8.165718321150886583e-01 1.961039467731123587e+00 1.837998887122642477e+00 2.010245196984406513e-01 -8.056269686942933994e-01 8.484647051505011736e-03 -8.179651472532520895e-01 4.572183278506491283e-02 -2.040479482406495348e-01 6.129411080866667971e-01 1.689977767935492814e+00 -6.590158017600413753e-01 -1.189301765513272935e+00 -6.418223164586946972e-01 -1.818953102445365788e+00 -6.239912018945451555e-01 -5.619527583852891306e-01 -1.405590365477285220e+00 -2.367023065151546035e+00 -9.560561453845459745e-01 7.174469642736633901e-01 1.079561785394377083e+00 1.615542847912541990e+00 6.960853413821944946e-03 1.522732510728294519e+00 8.506731595288080650e-02 1.127507686969066780e+00 -9.405367747997365191e-01 1.072551692864099210e-01 2.220756390629366750e-01 5.634293211804678458e-01 -2.627071701034611184e-01 -1.971154292057138990e+00 -2.613785697596217705e+00 -1.809992672158141191e+00 -2.022651240360212821e+00 -1.778493033396693512e+00 -1.407685843005735737e+00 -1.477653832655481392e-01 -1.961512742119244646e+00 -2.564377028823745075e+00 -1.202720951327269194e+00 -1.091369392986689446e+00 -2.112184202665610577e+00 -1.950148302093326791e+00 -1.341425617785936719e+00 -1.278723465970224904e+00 1.314417576912314534e+00 2.482960316910043375e+00 5.201721725990993139e-01 1.053375371543548988e+00 1.055476187177691427e+00 2.875900750301960129e-01 1.531847754669287243e+00 9.786802737925440754e-01 -4.577210575325145747e-01 4.408956674615734372e-01 -6.631074486457014805e-01 -1.223764882433546308e+00 -7.470931704453714906e-01 -2.395574027730785094e+00 -2.964389534458476749e+00 -2.661903691940075145e+00 -3.189396156190750897e+00 -3.112815571431346129e+00 -2.447197474980014498e+00 -2.544854174178150963e+00 -1.533716803966245434e+00 -2.113427219951087732e+00 -2.084051181333934633e+00 -1.228154068019156719e+00 -9.540797699053568115e-01 -1.197941935628386023e+00 -9.328190557733283539e-01 1.013876469988417517e+00 1.627924858236691419e+00 2.093472651352674241e+00 2.173017946132581812e+00 1.091588697189572521e+00 9.264428649715864550e-01 7.794916575835822425e-02 1.266244441449173364e+00 6.733529304066658838e-01 5.736282933565191033e-01 3.959218580106203533e-01 -2.970552767812775219e-01 -5.426355644740850082e-01 -2.902407496599901937e-01 -8.134361146875739024e-02 -6.827254017033631550e-01 -3.235687930019998326e+00 -1.863176356803360578e+00 -3.263241631264242049e+00 -3.336888892142105156e+00 -2.374749205648564399e+00 -2.884929131758822152e+00 -2.299927641698469305e+00 -1.443806526216123487e+00 -1.267106773844515422e+00 -7.193369198400946241e-01 -1.120797103271423678e+00 1.982327255467854765e-01 1.407627179385410710e+00 1.884403290318861002e+00 1.286018002902138413e+00 7.101953960859016535e-01 1.278665102630186512e+00 6.757230052017061395e-01 7.542800150823515404e-01 1.307388958408986501e-01 1.968779201500463205e-01 -3.807565257585319163e-01 -3.939431350331369375e-01 9.737585952029301217e-02 -9.553156305397396686e-01 -5.979715435836558957e-01 1.197417925690196006e+00 -1.291462177047773441e+00 -2.221016695048823486e+00 -1.989485349060627906e+00 -2.840598187901390403e+00 -2.162121933189344425e+00 -2.524052966496718842e+00 -2.099000506722655146e+00 -1.627968312493078162e+00 -1.718748930509921946e+00 -1.661093452061060960e+00 -4.281046228303512780e-01 -2.235708975554439315e-01 9.259842796187361946e-02 9.044951634992809408e-01 4.996581471873712821e-01 7.494092519806946351e-01 3.214139917336956143e-01 1.863238523469293639e+00 4.597895528942246846e-01 1.107700318015333307e+00 3.296160057979678482e-01 3.651795784325068683e-01 -3.585384992947656668e-01 4.125157364255778447e-02 -6.768346446531283700e-01 -8.099242591518690526e-01 3.339546257213123481e-01 1.957482582944320426e-01 -1.106822932929975717e-01 -1.536084605290414240e+00 -2.040824602630478157e+00 -1.772049241944803954e+00 -2.263428217123277353e+00 -1.162318509974313629e+00 -1.893892883663516269e+00 -3.214132027577852602e-02 -1.438287735900614761e+00 -2.030788928958945638e-01 -1.046562755088133789e+00 1.097431117538320677e+00 1.708296039327814153e+00 1.504779481880579750e+00 3.959426814820540819e-01 1.711726713384615239e+00 1.631144905250805577e+00 1.636532546742464289e+00 2.537842975991382310e-01 5.969645874338557201e-01 1.697653771181073301e+00 1.414859879987407643e-01 7.791733205164401710e-01 1.418396262666889562e+00 1.187231977176346313e-02 4.052007839163114800e-01 -1.227863969326931315e+00 -1.458369784418131809e+00 -8.336180725694056770e-01 -1.462188999878500040e+00 -1.681580298294383269e+00 -4.950052315787680790e-01 6.344611918792751604e-02 -7.030850717794221438e-01 -3.347684550224462596e-02 -1.501922902610429045e+00 4.836620819498280710e-01 8.639989331590055555e-01 -7.375282729537144810e-01 6.627904917649019012e-02 5.277078301391302517e-01 4.528849314412495830e-01 1.788916364242437940e+00 1.785070928577910276e+00 7.611888735348216750e-01 7.629080154730899510e-01 1.559279198359180940e+00 7.992521422453265911e-01 1.562014625031396209e+00 -7.292365518396068391e-02 5.243541706047541995e-01 1.116662735532513606e+00 3.379610882074319256e-01 1.415109626705391532e+00 -3.350373538458132905e-01 -2.416371269249821541e-01 -6.550651853245357259e-01 -9.961095751460032066e-02 -1.292880465477786123e+00 3.880565417399260975e-01 -6.272091228703609023e-01 4.226199317859180571e-01 -5.500903016763757369e-01 -1.129755406352418223e+00 -1.682745971105125415e-01 -5.941809673484200749e-01 7.581161607813170500e-01 -6.683041297158633931e-01 3.535551796556187232e-01 1.752645353154663077e+00 1.892330934549337540e+00 1.556651646495686991e+00 1.453455576511648806e+00 1.853590895440466957e+00 7.250977686023555302e-01 1.051279469753666929e+00 8.852691537795699395e-01 1.796449221804493623e+00 2.510357018674200247e-01 1.684858967624806469e+00 6.335577630454239939e-01 9.383739404136333118e-01 1.387884912884405963e+00 1.146883949134209546e+00 3.997124967754653868e-01 1.314382686248211918e-01 -4.044333261154325343e-01 1.436525350927957856e+00 9.065216261971706935e-01 1.761121334071962030e+00 1.293334282364255072e+00 9.544839085256466849e-01 1.249274001671866863e+00 -1.372985503548179997e-01 3.871132154647713430e-01 3.618416475501979312e-01 7.327525304375778759e-02 1.785119211633156455e+00 1.378308002163214363e+00 1.176909999776285742e+00 -6.109118587399665207e-02 1.012088630458329197e+00 1.162192342279319002e+00 1.175661240033617494e+00 1.300875737549317401e+00 8.621096542039684563e-01 2.067057148189516969e-01 4.787627910915053797e-01 1.350004453545137650e+00 5.085792798441716167e-01 1.617030317032824183e+00 3.519365534906281345e-01 1.483172558648269357e+00 1.883274180121724761e+00 1.246872041492696148e+00 3.948299294026285655e-01 1.921302555712519400e+00 4.815631762465777954e-01 2.017695618860755047e-01 1.305010481644776510e+00 2.015892528861257527e-01 1.110464116762958364e-01 1.744769391077297227e+00 1.139217258689489976e+00 9.888340469185311621e-01 1.699993930570823819e+00 1.370637844109305226e+00 2.448195831117011279e-01 1.205872575632090937e+00 1.730743777906263992e+00 1.564811231235456512e+00
